function [Y,Xf,Af] = myNeuralNetworkFunction(X,~,~)
%MYNEURALNETWORKFUNCTION neural network simulation function.
%
% Generated by Neural Network Toolbox function genFunction, 15-Sep-2016 14:25:13.
%
% [Y] = myNeuralNetworkFunction(X,~,~) takes these arguments:
%
%   X = 1xTS cell, 1 inputs over TS timesteps
%   Each X{1,ts} = 143xQ matrix, input #1 at timestep ts.
%
% and returns:
%   Y = 1xTS cell of 1 outputs over TS timesteps.
%   Each Y{1,ts} = 10xQ matrix, output #1 at timestep ts.
%
% where Q is number of samples (or series) and TS is the number of timesteps.

%#ok<*RPMT0>

% ===== NEURAL NETWORK CONSTANTS =====

% Input 1
x1_step1.xoffset = [-0.2;0.2;-0.2;0.2;0;0;0;0;0.0112820512820513;-0.8;0.2;0;0;0;0;0;0;0.0055675842870399;-0.2;0.2;0;0.2;0;0.337308347529813;0;0;0.0134395999374902;0;-0.2;0.2;-0.2;0;0;0;0;0.0113689639006095;0;0;0.2;0.4;0;0.0645161290322581;0;0;0.00793650793650794;-0.2;-0.2;0.2;0;0;0;0;0;0.0132367997659792;0;0.368941561308972;0.0116483265272193;-89.9884520115209;0.4;0.4;0.4;0.4;0;0;0;0;0.0125410220346929;0.2;0.6;0.4;0.4;0;0;0;0;0.00843881856540084;0.4;0.4;0.4;0.6;0;0;0;0;0.0130098452883263;-1;-1;-1;-1;-1;-1;-1;-1;-1;-1;-1;-1;-1;-1;-1;-1;-1;-1;0.8;0.4;0.6;0.6;0;0;0;0;0.00970873786407767;0.4;0.2;0.4;0.4;0;0;0;0;0.00961538461538462;0.4;0.6;0.6;0.6;0;0;0;0;0.00819672131147541;0.6;0.4;0.4;0.2;0;0;0;0;0.00874420564686051;0;0.368941561308972;0.0116483265272193;-89.9884520115209];
x1_step1.gain = [1.66666666666667;2.5;1.66666666666667;2.5;3.48101265822785;2.1849710982659;4.3594470046083;2.64285714285714;56.2735257214555;1.11111111111111;2.5;2;2;2.05128205128205;2.1875;2.02684563758389;4.49253731343284;57.4431517263766;1.66666666666667;3.33333333333333;2;2.5;4.67796610169492;3.55845101609014;6.33628318584071;8.58536585365854;59.4691511515867;2;1.66666666666667;2.5;1.66666666666667;2.08061420345489;2.12546125461255;2.56497175141243;6.56140350877193;74.5262988147392;2;2.5;2.5;3.33333333333333;4.56716417910448;2.15607886089814;2.91275167785235;5.01612903225806;95.0163934426229;1.66666666666667;1.66666666666667;2.5;2;2.69208211143695;2.66037735849057;2.77551020408163;3.75789473684211;92.1894661680979;0.666666666666667;3.31598591011338;92.4060737621296;0.0111125424535981;3.33333333333333;3.33333333333333;3.33333333333333;3.33333333333333;2.03488372093023;2.0188679245283;2.37735849056604;2.03305785123967;53.4921630094044;2.5;5;3.33333333333333;3.33333333333333;2.02985074626866;2.65853658536585;2.02816901408451;4.31168831168831;59.7295594436098;3.33333333333333;3.33333333333333;3.33333333333333;5;2.07643312101911;2.06299212598425;2.54867256637168;3.73228346456693;54.3688501007001;1;1;1;1;1.20491803278689;1.00395256916996;1.00621118012422;1.02127659574468;1.91666666666667;1;1;1;1;1.01234567901235;1.00395256916996;1.00751879699248;1.125;1.92307692307692;10;3.33333333333333;5;5;7.0625;2.01587301587302;2.02439024390244;6.23809523809524;59.225;3.33333333333333;2.5;3.33333333333333;3.33333333333333;3.54838709677419;2.42990654205608;2.06060606060606;3.35353535353535;51.68787515006;3.33333333333333;5;5;5;2.02352941176471;2.01980198019802;2.02564102564103;2.05882352941176;64.4453474197481;5;3.33333333333333;3.33333333333333;2.5;3.87692307692308;2.01739130434783;4.04545454545455;2.01941747572816;51.0290466130265;0.666666666666667;3.31598591011338;92.4060737621296;0.0111125424535981];
x1_step1.ymin = -1;

% Layer 1
b1 = [-0.052283875716606455;0.027873946573971853;0.080657865960560113;0.051915418296953578;-0.08602443206113132;0.10218399522235291;-0.092207719047276621;0.030767393504885592;0.10069310870656327;0.049599153173153034;-0.079274613614790837;-0.092237607762650817;0.041693933307957572;-0.025101754528943435;-0.038389053022382685;0.0089974380288968415;-0.006935292765252358;0.11535755859884278;-0.10776516327815587;0.024781743491800443;0.017849543702156866;-0.045940863239010497;-0.01175511799281009;-0.022510841507999611;0.079277561390077161;-0.033973578012035772;-0.0078579820505004314;-0.018626878025117772;-0.017715556728499754;0.098318104983476831];
IW1_1 = [0.056554535607494245 -0.13709119562885405 -0.04092090413945499 -0.052966545657834457 -0.10199014962170218 0.081400340201113905 0.076040854405605984 -0.020134283951694892 -0.048884676385412905 -0.057904928948785815 -0.0033935491725175077 -0.074433317107070157 0.055632478081174844 0.014462542630341309 -0.066650050822726029 0.12228035150395013 0.0074666813157238986 0.014670704485715804 -0.16867915939609274 -0.085287900495544341 0.005427853448536986 0.059726354681759929 0.0063250824403873604 -0.01899669556475685 0.0019455502169221284 0.10674769410691413 0.03045433084864169 -0.062058495265721651 0.096868848142682998 0.014433796813710053 -0.017217685421597365 -0.037421333939718381 0.005887353573948876 0.074438331971928826 -0.056212012172499382 0.051504642824824955 -0.035462302160638559 0.085608830541944334 0.01790780079798019 0.089215619861118506 -0.072436347762200981 -0.0056317046464036498 0.083096656148540823 -0.049498716914513095 -0.12796949673651137 -0.041104192793628487 -0.090309955868057554 0.05390513819316823 0.060982979133563264 -0.025581109628795257 0.014989252845355742 0.11578681449796227 -0.064710514594446419 -0.017410333482224476 0.0036900978334958763 0.10932246541563 0.06424727436705871 -0.010891744012417893 0.002532831978430372 0.017472897700620618 0.064027994796957824 -0.016144965409615287 -0.034112142603813317 0.0056627702937983278 0.066097639000059411 0.076635585224160932 0.039677970780201313 -0.0071657923442993952 -0.0015256884012985555 -0.0048033861667714176 0.054509310052669721 -0.030610232239049153 0.055594693939326853 0.0020676074683326998 -0.01513909408581327 0.064493499962473444 -0.03922220345838167 -0.013121325621403567 -0.080156342276185025 0.034315621072720938 -0.038575767945375129 0.047808169545014066 0.056587785685488765 0.048297435756432708 0.050115646776469659 -0.040895332045126999 0.083036165028753536 -0.021448908860358867 -0.074651368219679687 0.08889306226047182 0.029179043399337998 -0.0055886634201926504 -0.045894322433478768 -0.010272947415908829 -0.0085398111870731395 -0.046453721764884694 -0.1254584355690323 -0.009909682291790128 0.026138707560979892 -0.063545101093854042 0.051808256467471538 -0.10254066656047654 -0.078551362685580814 -0.037021324833091326 0.039569564445243892 -0.00046968098099719129 0.015630816118172935 0.033082755912151811 -0.015671980550439474 0.0063987566696086075 0.083069215817033984 -0.020747240979410012 -0.035034273218453454 0.0052581123832758812 0.035335836159483991 0.087058393820188026 0.16690129371688214 0.029954516701281672 -0.045958267563916709 -0.031415874006795221 0.018790140055944659 -0.016991415028734632 0.010062819326111968 0.027745571188919557 0.11245742490023358 0.066430919413023634 -0.063431144228727351 0.10148012622918028 0.0035594793570980212 -0.078608298695263187 -0.14852380032277854 -0.16980989978138808 -0.017291302322018941 0.039297187497638789 0.04614556029168785 -0.04150363098246522 -0.021058913261279989 0.079208077244187977 0.038240530291848263 0.0036900977916821277 0.10932246542157588 0.064247274353703032 -0.010891744011689629;0.010084586288822568 -0.025609444446047871 -0.023887278616765817 -0.03040294083691053 0.035500019887323667 -0.056958018480203196 0.068927867271971643 -0.02718259543719093 0.05417110255276425 -0.023671580956477013 0.049034748378350521 -0.066963331787351157 0.079090674578935177 0.05625252080156512 -0.027352427278547923 -0.042656578988047984 -0.069280152634828909 -0.056467530137126687 0.040360306458753444 0.094124341739434361 -0.10255261370972274 -0.06669845132536234 0.06492556622039089 -0.046053676547105807 -0.079996143856190097 0.020739621396389501 -0.052331593645916816 -0.1229457133408924 0.073314546616307832 -0.12186377702783199 -0.042022514447207483 -0.06380025230120287 -0.026386654463869116 0.10740484068117792 -0.11203280805956907 -0.0024251510732485309 -0.024459268140761201 0.054719070801115675 0.015191357310549892 0.013305327067997696 0.056897669571456935 -0.02613518633523684 -0.063790270149405248 0.036771014503716691 0.02238683448018795 -0.0027946416046682266 0.018002655496483055 -0.00022725981145630628 0.0036552232378314173 0.015566361508572721 0.0023715671409725251 -0.13625338947328461 0.11424610407040718 -0.06783533731117504 -0.049853709314446257 -0.033583897229482823 -0.15424382482343013 0.033875606115597423 -0.00098888614001914148 0.038163806760035904 -0.086119811965073692 0.044702323953517524 0.084549077298977524 -0.15367137441026035 0.05418140613968938 -0.023984215022166619 0.065500545156413306 -0.058245102668413908 -0.0067883074482723302 0.043522094587826049 -0.0048023005689730447 -0.024688195164781004 0.023593976177500538 0.056690207999732421 -0.13999100950898957 -0.0050745591489743226 0.12333308476462075 -0.059286507411483808 -0.052416414980178717 0.011388960406357888 -0.060059574437632601 0.059874968618665057 -0.032204509463776641 -0.01441884933113575 -0.086061380580677277 0.043738896622424833 -0.035988651151045256 0.11198909773100622 0.069324992277275413 0.0042290358277330331 -0.064125939698914197 0.10090318801083163 -0.0004200884631884759 0.030284583976132672 -0.0094294780772346438 0.11329601271945057 0.0068315684756551382 0.01178995964855355 0.033135128626965611 -0.071085953279810848 0.072349092052842748 -0.014717851799023612 0.029696280043077939 -0.06699985483847197 -0.073699948397927609 -0.016923982604794243 -0.009617541367303261 0.020231442634281647 -0.07326101416824618 0.014799193759359161 0.094071119933989575 0.037242379462302903 -0.03614914553447917 -0.0026535750003854946 0.14670157363693706 -0.019932078533050082 0.12266825534248073 0.080294578726362517 -0.13140859877088734 -0.065814537694340258 -0.01719302977213075 -0.050462828296924125 -0.084848098371548775 0.04884738316264331 -0.10782617605552873 0.097681628440665011 0.0050257731839941002 -0.10478434437252843 -0.073897107098097853 -0.030446429201008589 -0.088008722576182294 0.0034404474133015884 -0.037192719791162052 -0.098131596404144136 0.12360044425755817 0.037908066645097827 -0.036434306074362856 -0.12390885427956642 -0.082355293420192044 -0.049853709302206423 -0.033583897229411165 -0.15424382484382076 0.03387560612031601;0.068212928909111084 -0.068778726997969719 -0.036258591653255276 0.038749482228414012 -0.043830577978728899 -0.023206451358212605 -0.0035846743407850078 -0.030532110827516997 0.0085099898621959786 0.068017270279744371 -0.010220346491555132 -0.015673908987515219 0.05897701175195573 0.027173459907251778 -0.053711195314703086 -0.082268692026433443 3.0175344658835829e-05 0.00402624261956986 -0.032608821543049005 -0.029502177836450615 0.041783486682473399 -0.039507694501540153 0.022825093244192216 -0.053599587907113305 -0.028781842483179366 0.017147524017937735 -0.032843323351249148 -0.068696066260067759 -0.031355456691154429 -0.010736425799457893 0.011522632292892774 -0.052610204991495539 -0.012162204627710414 0.082686409746694306 0.014644228449952544 0.031095498640710782 -0.02923202533126705 -0.03450111400636454 -0.10461717583627667 0.1077646205515873 0.10745319956014589 -0.07491414295314891 -0.043560221722065876 0.011388168682787855 0.047155560686845469 0.097755964497006229 -0.047004095340933048 -0.0064192710166660408 -0.024591746666860908 -0.11435961285515188 -0.0029958011778227676 0.028395402413802343 0.01348798248472456 0.0011117459155954666 0.034084067155921868 -0.074691409030843314 0.026145348035098093 0.067211198955440629 0.024387718907391824 0.040768454858993164 0.026195154264475735 -0.020806670652222328 -0.10321620249027827 0.013724193922545102 -0.0079024315714294122 -0.060335147566503426 0.046110980293156377 -0.006996893675850397 0.023004659463728379 0.1790941144348 0.0030471446383101247 -0.040009873644560844 0.014072962559705433 -0.053868137265419114 0.016567196062583084 -0.025827364383585603 -0.0070232976202515554 -0.052438304876380869 0.041693587439124727 -0.023113092412814291 -0.037980008478471702 0.0033208110846238742 0.027223302417052009 -0.17320652205923232 -0.019345458595894038 -0.00062374542071249586 -0.02245751032269119 -0.036235016805335953 0.080517169333175279 -0.0094220727496714396 -0.043464723964061001 7.4166589201858643e-05 -0.037039031514645632 0.0054853670707006429 0.019826787581615046 -0.028666098061954387 0.11563667174837654 -0.036471966552488917 -0.03484866932782054 -0.013168442465606519 -0.0018507933115424935 0.0049528611226281674 0.028469520038492947 0.0043031443003933821 -0.10282951231829268 0.10568699802200411 0.0024596797937486295 -0.038337089992781119 -0.013380755852107868 -0.0093041144227147543 -0.051393849758235903 -0.0042547030352904089 -0.03397091491453335 -0.026118393416295758 0.065440252397819004 -0.043430588652833016 -0.089270387977550464 0.0075341267369041145 -0.027275005978834841 -0.019465711947269843 -0.014172953872414811 -0.0089535208702116297 0.013123742093173556 0.050875801077028833 0.11013392056744371 -0.11686979996405011 0.029735153202112594 0.0079008571411925514 -0.083428399356865399 0.028214724982835296 -0.17707365045200524 0.10470847792061452 -0.050836486218231912 0.026668434171048416 0.13342097671564887 -0.090105527774888464 -0.04009009062718602 -0.030883048063912979 -0.045364204172934436 0.034084067182517427 -0.074691409030251066 0.026145348033465909 0.067211198909513131;0.06806467543894866 0.10683596027289889 0.066361754761475461 -0.075895566610225645 -0.035232953551989653 -0.10475409443467405 0.11203505755382163 -0.029081496488983165 -0.07805999772266034 0.078575430737969937 0.17953206517508066 -0.062096896566874851 0.044007113019762435 0.01169651769455652 -0.20567223323512412 0.14849829215825955 -0.082726869883182355 -0.010696076818878148 -0.064464362820892421 0.017762752101601591 -0.029184004745310535 0.027459785425810481 -0.037395174305934142 -0.031661743102695719 0.015933379969208131 0.057294953683315969 0.017792620893488795 0.054017692511518563 -0.01840016279778554 0.022231055328441791 0.10862004851265099 -0.16862047073234906 0.025713065888737997 0.071547851102652923 0.067858580374770064 -0.14166478388790332 0.16241202145946509 -0.07896381688569927 0.29139033023047517 0.080886598252635486 -0.13504395795280069 0.014375302433576794 0.041818097077769123 -0.031812356743745857 0.082375334921408194 0.18728661649347722 -0.048100901680644938 -0.20931799952446481 0.17598276114770919 -0.11846428523094084 0.0088758990858433546 0.10003349312445475 -0.062722906487568744 0.051694078396098346 0.29696765873535746 0.11037797131243153 -0.18063818501986054 0.030169310988420212 -0.088587622692903573 0.030916692639965191 0.2144240613693898 0.032664176481693716 0.14359660826023596 -0.15835689407925854 -0.15197649891198925 0.046586795650715537 -0.068055237937307667 0.086547650066804011 -0.12255079074804748 -0.03745080035318904 0.21136421352043699 -0.073951832837411802 0.096943302217213437 0.11415260604387707 -0.39348335394560829 -0.16069150263096801 0.35707910440688556 -0.074365649573070083 -0.10526053290730175 0.19978369105203744 -0.31810360650990316 0.30026625469297435 0.072468392824270048 -0.20103822755522491 -0.13639062117679429 0.1061552118156794 -0.024308725442605723 0.09955940498564253 -0.031042508073250409 -0.23114562079093567 0.086453597342353902 0.075410576596391832 0.094715949589836076 0.052669911977318067 0.06763339239927578 -0.02434471684918315 -0.0060262272849179411 0.0069913448065053122 -0.10155441588954542 -0.13730598130969812 0.049117303446256894 -0.015158744536098596 -0.063650476465400924 -0.13413248489628118 -0.16294352208771451 -0.099604599955374878 0.068903072043579053 0.12473021061227117 -0.014729464374968779 -0.051141635752702856 -0.029005279430643287 0.10413597591977408 0.13059755302947951 0.029439236344518782 0.092493241786610988 0.041918943010895431 0.00028287374447509426 0.035385208588152146 -0.086839706702065353 -0.0073653720510879041 -0.20852579416346106 0.066745138461837564 0.12958863945425164 -0.20876937002470208 0.1677309097629571 -0.19869400767933282 -0.15062945324532134 0.36461663968489783 -0.11111447480837615 0.2158176856613484 -0.091229199073053116 -0.074224402559831509 0.14987230664854378 0.030384688883198126 -0.046907673910913383 0.060873993772757769 -0.2409282192319937 0.029867618627855332 0.095808191908072174 0.29696765873474967 0.11037797131145614 -0.18063818502583429 0.03016931097976263;0.016024285450506343 -0.08473364315080377 -0.014500609247012179 0.063250094374111318 -0.02539306754719663 0.12097811738922576 -0.077752858378422482 -0.049710033767892188 0.0048746261405745736 0.028216754876883063 -0.014630543383769852 -0.11632360487642543 -0.20065392824827138 0.10250537881080508 -0.12221863610806732 0.069199625842931142 0.10772997190852709 0.0025722252213984899 -0.027207741633184856 -0.058517225487273096 -0.033561141037985631 -0.042827490999013465 0.022873173522051884 0.013269896861504236 -0.019345920951572965 0.042039591035142973 0.080196615983200201 0.052198456008263658 0.10148803261447673 -0.11761686016567158 -0.051548275321426244 0.16337593782438056 -0.133551019444928 0.089046298953149861 -0.070297510774229702 0.020364307212886852 -0.19391289458704869 -0.34907281693257852 0.17525189040731773 -0.065054100749765462 0.20139356562910041 -0.087527547902768413 0.053820184785330842 0.049820856648243504 -0.016011385419902047 0.028062891795994936 -0.017860385489820496 0.064874292517948906 0.14546523768139918 0.0403338061804525 0.11189720084136935 0.032414377375339254 -0.13748225171354961 0.012903640597191866 0.54250241286804346 -0.062862394384577608 -0.045667206520926047 -0.011140647511426937 0.062590035844746678 0.024051668655829733 0.12621627617544681 -0.10046727916505181 -0.012773698918914616 0.069729490231397878 0.060007856577321814 0.052882217504472716 -0.028067988180500693 0.0542520814462304 -0.010574322880024842 -0.043093038227693864 -0.074992061329621357 0.042666900583015997 0.12822176272229274 -0.050650093649778752 0.010327474850727891 0.076224964867155728 0.05900387432322967 0.043460849829038153 -0.096561484923172833 -0.074127346297173727 0.049194592702586422 0.0028750613406644246 0.057518254852045966 0.032421577377453673 0.064434332709434813 -0.07375401785319094 -0.16325817661179456 -0.016924425261017242 -0.059621850688134588 -0.035356333825168139 -0.0037348999503088141 -0.063834437664413324 -0.0067456577603562272 -0.083205761809943074 -0.12420698250800452 0.0030422021425361755 0.065165274123214809 -0.14921776016509852 0.035512557334977622 -0.23424575821505869 0.093602887833548573 0.15191529675745316 -0.044147992224577978 -0.040202064868545606 -0.25622240050417788 0.02502829126393687 0.26739892120745584 -0.056586580512488535 0.0059925268147899046 0.057184449162451349 0.030468643038795783 0.14159851596019016 0.017353228143087446 -0.0089640002008716507 -0.052635332200563351 0.021865028540527378 0.097110258586604076 0.031503711730608626 0.022161375351389352 -0.030818967991759764 0.047252006380539911 -0.040141352865715428 -0.073511251132187649 -0.16530902257496943 -0.076399472480274358 0.023431972201971622 0.077648778495755508 0.10804532663440405 -0.061580944203146422 0.0069441921384038588 0.091016371419177192 -0.015055941704690776 0.078179391865949521 -0.10393593947258317 0.035892726361967817 0.012912154788934548 -0.090547617199605357 0.10401984961342461 0.0045699262163866484 0.54250241288009904 -0.062862394386471135 -0.045667206520515306 -0.0111406475100155;-0.058267364757491759 0.36303472875203746 -0.10520897290355974 -0.074796881355418662 -0.1727819713789511 0.06428158952193129 -0.11430912189655097 -0.019225024365354587 -0.0084120734058998285 0.21824391342819446 0.18354858404022154 -0.055378862329114528 -0.14266294172761046 -0.03260635800744148 -0.16155012148303979 0.061346215711191421 -0.060357098511420688 0.0037660150693051265 0.23947751031830899 0.12043722096223577 -0.15399108639780165 -0.10261556911019083 -0.11979943980639797 -0.017779947812793885 -0.021806563102318616 0.20232588457342321 0.035373298285632668 0.14393160926673174 -0.037878362399039418 -0.14519792682120608 0.017625340595945699 0.049026168051113268 -0.078921789691597063 -0.056923329203253797 -0.092269936724393264 0.050490376398117764 0.087079071529929483 0.017581761751404013 0.031559026404546636 0.25671396919777129 -0.10764020466881156 0.13219925186727904 -0.13423285664723564 -0.084585732148317216 0.071063826451130588 -0.10132113495451935 -0.057161211195141177 0.10430294952540947 -0.0903237422677797 -0.20675015270002114 0.054331756923605729 0.0012800201048531069 0.053011972945272864 0.052928831221776419 0.31324842603727859 -0.028612200492365122 -0.24852192720161956 0.017809185893809837 0.075604303325549183 -0.040985386676115607 0.0094806425461873914 -0.071689021891083421 -0.21060360908278028 0.037103331251483108 -0.062349665896397656 0.028891137700413509 -0.12752486600281843 0.095332244155774404 -0.057795670717783541 -0.0073358357435408294 0.12452869298920728 -0.043239303402060537 -0.062473906776556676 -0.007545189080949124 -0.070745878617791871 0.03026775598419594 0.042441818533312817 -0.054625431811583428 0.01558765619104964 -0.14007290560388799 0.077102772674068606 -0.20876054279235018 -0.053226478282479166 0.047510102093480923 0.13793240121345712 0.081258767043822372 -0.0020663424783014905 -0.10335029735472966 0.0068080548186233445 -0.086185251653299086 -0.05637158879430542 -0.042451587334887277 0.12989973877245584 0.045625514235952035 -0.0096286780162466844 -0.060784989240658359 -0.11189238757866103 -0.019679510053456313 -0.14361796075916983 -0.078526932331582297 -0.074227484088886936 0.019535625039001383 -0.038377056423204416 0.00071317805271002826 0.66210580535798691 0.10230765516928003 -0.067341511376633981 -0.021311213011857275 0.065197190068311053 -0.12548940842399423 0.091070544254351529 -0.29743624126356594 0.2164388182123288 -0.30137837533822942 0.21210887843317597 -0.10727030447650179 -0.15495631441057223 0.012727185715376701 -0.076500710367264427 0.081387682106223921 -0.13425183542144062 -0.039067387346950352 0.14799201788758617 -0.17202992560664371 0.0092405790605204433 0.0046237254997956228 -0.077294452735968508 0.058566025749797058 -0.20009474721345802 -0.085985267039533519 -0.25875738444540358 -0.055701419879915413 -0.042087846126161801 0.064047743409949578 0.071277341053251689 -0.099603611719310786 -0.13554809466382109 0.021972729047077331 0.24144154045180169 0.31324842602295855 -0.028612200479836935 -0.24852192719768371 0.017809185978677887;-0.033082981165366954 0.14635024533042315 0.016112533409328958 0.088332180555798515 -0.039887286604959306 0.12085450076993967 -0.066242344000760012 0.040691311665381716 0.0063681038934765193 0.030593158316843554 0.031566202013018879 0.036983552506691136 -0.0059955655332970814 0.062317224660933486 0.060842566643402408 0.050183919805800913 -0.098274549590002647 -0.0075232305301339633 -0.019940176615910979 -0.15583093256518882 0.004235561828158969 -0.06586957549853574 0.022497702120067714 0.098022844755051797 -0.078950428997783886 -0.075633296088113491 0.067060833148506194 0.098839139486967223 -0.022137498738752648 0.019692493541716406 0.049571969298313021 0.057862764361917111 0.0087567118635233174 0.013997703296311021 0.078529470305349153 -0.021512184565824488 -0.070670202882237423 -0.076349080663714833 -0.028807307073165572 -0.026043090057790139 0.085212079580105682 0.044571429947250489 0.024890080984687687 -0.049838298737410025 -0.053937851819129738 0.032415991897659611 0.017757294519397105 0.044652248937210759 -0.098644963279288941 -0.016420126320742516 0.018883215861264804 0.080201390634917658 0.029236326412962425 0.051319920768021464 0.013222517264073247 0.0088041493981816238 -0.043719396891400808 0.048858277642280332 0.020861309454110317 0.00031701311915992183 -0.14820850802447608 0.1057177089378625 -0.057579858124989336 0.034005248169684171 0.1252877291809692 0.093042645213682329 -0.056007012168831846 0.016204788801874211 -0.0079056777308666379 0.0071573178326342825 0.074554410202901822 0.21636762787067615 -0.067641123849282378 0.061624235903013164 -0.080939428425675461 -0.035448905879172009 -0.011971123834248218 -0.095847648564029816 -0.15036639085456785 0.011359365281233165 0.024164706303489353 -0.019367546870661115 0.047313787894175001 0.12680545539444038 0.10942134454136339 0.04819742372969224 -0.022244656497382449 -0.014262150783092469 -0.085586711780807428 -0.077070123060442156 0.057966071616283532 -0.018303331876899826 0.088324172198035969 -0.01944152985324385 0.015958319042228077 0.019474070899853202 -0.029149565568569766 0.13514253817417693 0.083943767600943561 0.074568102489217095 0.0078355412432501506 0.097686938279078012 0.052946757679072406 -0.022467263872947525 0.029876187671439295 -0.03471085471196033 0.093135235734765315 0.10721365259652078 0.096733963878904483 -0.045508285731105907 -0.065332816302229868 -0.02821599305891602 0.10744830466854489 -0.12206729778554194 0.06216932143148432 -0.01655189009088931 0.018006115234308388 0.062719710210667079 -0.01859608990232103 0.088399062283228164 -0.026718725707748865 0.027706865300489682 -0.096555198476628343 0.10120201636254375 -0.12506723507545348 -0.0077255438046549291 0.036486706011168671 0.079740682058486528 0.090168637321475439 0.10129811918836873 -0.042338714658988225 0.18734328280740092 -0.002879782628987677 -0.037301490749521764 0.19789936659399146 -0.057843801445997496 0.080702206494369072 0.016280125156205871 0.074491059856166983 0.013222517284584455 0.0088041494056560251 -0.043719396883433487 0.048858277605707823;0.13329163673116043 -0.020221804939879684 0.040782403597684327 -0.056391407271640069 -0.0067197395205477531 -0.020475370187535761 -0.056773287106155139 -0.0045091160880711481 -0.066638068475322054 -0.0039300907051916436 -0.026905199729746362 -0.12973693080657706 -0.091782528896476992 0.019628810884674879 -0.084781360338803027 0.031679155091991359 -0.04512219644876754 -0.023442267695813281 -0.06315830097177895 -0.18989950828549754 -0.1389520887023083 -0.12607824432347003 0.038797126866364391 -0.069031538196502581 0.02746728615517206 0.0397371125989271 0.011428836350839642 -0.088502771185060641 0.079224644345196577 -0.036982545255527147 -0.020215798792215946 0.046824791791794156 -0.10619182540915571 -0.015669071641280809 0.062593977986613966 -0.091466653148598656 -0.15075988427830067 -0.080682326839763743 -0.039326533663407555 -0.057733915076767887 -0.00053077875218418861 -0.032607799791803657 -0.0092076313147803519 -0.023902364772146609 -0.017762130274554509 0.023642249296408728 -0.092802614966993074 0.011866411231457057 -0.21084376526283202 -0.032538976252781973 -0.028787179021674165 -0.0036020449149710447 0.039118129350623594 0.050900954552664288 0.098842317681261727 0.027313169751880625 0.15625817646759912 0.012805123097471916 0.074881684083406314 0.1907585380455854 0.077756077287838107 0.043189122477759426 -0.019681171753258078 -0.10503557646409972 0.098461234247085153 -0.015048168401760232 -0.08392103708425061 0.086578528461375218 0.022909406981977205 -0.043682000704604894 -0.026642809307774566 -0.010718752261066672 -0.010974514807155767 -0.043699252872805953 0.010152109086988345 -0.074516974105991687 0.023177008405717497 -0.0099502196851992911 -0.068544741809723767 0.08594689167328412 -0.052464961080138518 0.0067512149732088123 0.085034638672270665 -0.10033945998952873 -0.072667042528550899 -0.072184214035612593 0.075330362468377501 -0.062879766094031606 -0.045146442036151688 0.19537029637119135 -0.0058424403937593385 -0.034427352969650778 -0.15057042874485116 0.0040318242444930992 0.17509013451044922 0.016904470297641284 0.097173938107558117 0.15558013877313079 0.070402799329352089 0.13508247979823629 0.09997369912100601 0.023819961598437626 0.12975456702176658 -0.083801143414860835 -0.15500308987107006 0.0029192935334423106 -0.14453150160919706 0.027135416121886 0.00067202586126979174 -0.029021260968162692 -0.048711725562361363 0.0084527601141526146 0.020694881558654874 0.10472184528289905 0.032858188807727895 0.022988549990225073 0.016300155158923645 -0.084535741134198775 -0.030630248376840089 0.10234466925749879 0.02353304754438508 0.027767154838257469 0.058612497198084687 0.012542912731544368 -0.0034453551494904085 -0.018324121202316912 -0.13262422591740441 0.043368496016471816 0.049908232736100018 -0.06812802053478495 -0.0071786405632348832 -0.08026643231563875 -0.13025278649938912 0.013797030673713209 0.018366171448038246 -0.024553793082098291 0.088597333839308332 -0.053294924040858623 0.097491613935040231 0.098842317678790717 0.027313169734691233 0.15625817647570545 0.012805123110967851;-0.14898897000224701 -0.066740964537911382 0.050501753851586249 0.043965314022474833 0.088896550447861752 0.048441992275485991 -0.1227558154497603 -0.15207888425819385 -0.22472485463177164 0.010252658780960362 0.079343618632831042 -0.13128906094948159 -0.00081517743948394082 -0.075306516315675323 -0.014868575009009873 -0.07391237651905172 0.09659024289053264 0.17872369308283334 -0.03103212524875024 -0.24399111753974273 0.033681375603314474 -0.021872175414465692 -0.063335341252963182 0.01038883683430653 0.028860645209424808 -0.093070900757665845 -0.16036854929399832 0.21117999361790055 -0.04856258589790162 -0.18354020666746784 -0.072404651246577342 0.044828113169502866 -0.20756533796783969 0.21902642600551062 0.031379611158587353 0.10984641192559763 0.1483256999071644 -0.022955428877036464 -0.18961787241586112 -0.088128444531203429 -0.14372472934328262 0.006971482689542857 0.053960581410623466 -0.10621650400723023 -0.092805266462601607 0.034236747346093659 -0.065612247282874653 0.03160622435355552 -0.10423562730020298 0.11475574555367904 -0.19554463085907128 -0.056541606410181189 0.056703592584576204 -0.2358783465230625 0.060717765312887785 -0.18932521235158445 -0.15648969795179821 0.17632862091840154 -0.30555502953817221 0.17314446249228338 -0.21084368082807439 -0.089986595002487388 0.10150460932169854 -0.15693641326760663 0.02139293419005751 -0.16429469769227956 -0.046753882270318049 0.0052781869295322019 -0.099110054233632019 0.22076622234772003 -0.015101639455300048 -0.10889050796817344 0.055800511638912718 -0.094222831430870096 0.11185300587307252 0.25757365557295542 -0.060064603144644124 0.0056231764390040359 -0.18802105535069324 -0.12317912537180453 -0.049066050454847722 -0.0077602601748337045 -0.096459153247903412 0.0033197206250660813 -0.022001314947558481 0.087913571717458117 0.12036408624469545 0.044431046688119778 0.11174339022050753 0.019199321035318486 0.18043118701220789 0.00033821831492060429 -0.091680179816414464 0.081099021854359715 0.13598311135535698 -0.014723134724574202 0.052107180327345258 0.046384830439208616 -0.028109609321186405 0.1970694239502124 -0.10674736123955673 0.065861097633333407 0.091244993460083731 0.16713498675289273 -0.011027875140901236 -0.059178319324387878 -0.066244370882722711 -0.11989684856054171 -0.021301146332939558 -0.019889440008767263 0.027152761451788979 -0.24229969650323724 -0.075020284298994058 0.031068598196252396 0.21170278823394192 0.057909386578822969 0.31991145692607853 -0.17200303012247958 -0.14558878829875113 0.01546986646032175 -0.2770591755158387 -0.0065511228375757322 -0.068449602065724105 -0.048974444316191343 0.26251082326847458 0.12199512964647101 -0.15222603451640465 -0.17058914788553622 0.018235801430330666 -0.0040363430651903284 -0.14340523844862368 -0.045286303467291691 0.24594458699917621 0.19703705743690056 0.074540964109360175 -0.010804251747112607 -0.0077445216055319916 -0.105127734910914 -0.1603461578332106 0.060717765339183043 -0.18932521234049418 -0.15648969795292605 0.17632862092237706;-0.13004643387754461 0.15658398490275605 -0.024415554729403308 -0.028973386779987037 -0.0085667359243576987 -0.046039055424096247 -0.0020999413896753737 -0.033512695480977801 -0.012590817799111061 0.067969660340390786 0.10998254109957763 0.072899417417609039 0.035291183208623081 0.0052472937118444602 -0.038874251277595639 0.043267934007938359 -0.16652118522350789 0.018569577095755057 0.094796261020221415 -0.032950912875933228 -0.041496624342314069 -0.065568038072424312 -0.068110217235726592 0.05400537173224438 -0.04903514780572351 -0.035160182077284614 0.027417590837008333 0.13567764536080568 0.0091361581891064372 0.021631233115095343 0.06200204697163552 -0.013565373315031428 0.07996751839544812 0.071052937445649139 -0.13502256517525629 0.12148142647341248 0.043676349653054496 0.10900201989752145 0.031355037723606129 -0.017064914619944967 0.008071722989995837 -0.0044208035112853778 -0.025417590621656778 0.045793393127984409 -0.011350536951967241 0.067319354982037727 -0.014120957708580292 -0.049785020686921026 0.015831944496033347 0.09040968019018307 0.025291620182296911 -0.12248626510899802 -0.065389253734697964 -0.02212925218093249 -0.055684072110241227 -0.037915688814641753 -0.14645915803617848 -0.15115952210204919 -0.01385724813363642 -0.022911749913875724 -0.12920842303328309 -0.059349469421846136 0.010128589416827156 -0.074245987040291644 0.041153617889944545 -0.067674749567349451 -0.0030179341363599801 0.078579759834438045 0.013836429865268641 -0.098647448007797858 -0.044436725833063594 0.052463702687459167 0.0099140197840130347 0.037873875890907613 -0.035020213020160076 0.12367674909666744 0.032495214918512996 0.025679892895351789 -0.095331521354532392 0.05055232170008029 0.077809370507752912 -0.1113849979262225 -0.059844595624673674 0.007759504100994157 0.12174463688249394 0.0049966883371654813 0.024271499768108769 0.051068968168215302 0.0159746533986855 -0.018599842025996727 0.0074755889907947345 -0.060327753399824435 0.095124228284486648 0.039958383154882884 0.035461748845045521 0.053182103901232965 -0.012345734793965755 0.064735944086541583 -0.043088077451864236 -0.035124170002806536 0.084441823525307741 -0.049721758482641223 -0.0026588242224648063 -0.19700980929506839 0.12210401724394625 0.022649072007773902 0.04025181386533782 0.13459566714330268 0.041556977870249666 -0.093929235240291786 -0.066703634986576069 -0.14051845992681988 0.086864930859987019 -0.020458492358712714 -0.055952631560330653 -0.077598500784841928 0.03965351915272744 -0.040499114711449374 -0.04861513336029967 0.0032539931803366338 -0.16101842686604056 -0.056700199801844091 0.074594645401950752 0.18301710021946827 -0.012796880940303531 0.097285901958933052 -0.040186071674206764 -0.052794263694552784 -0.085777128624941967 0.012985473049230561 0.017356866893906749 0.09144045923652995 -0.037758598879733693 -0.060789560926765553 0.13982594358950642 -0.062967338231304196 0.056962784072579216 -0.091871606338924536 0.090805082572795542 -0.055684072126080404 -0.037915688822302791 -0.14645915804791795 -0.15115952204361746;-0.03264015198900961 0.1105231829084798 0.0036341840708038926 -0.0052358409699135378 -0.012943581309949636 -0.013059699275505843 0.073754911971738668 0.033353038160990722 0.04327125366260616 0.043749517329158952 0.018267717173534578 -0.017865937140806174 -0.10043197905667145 -0.023132883964738331 -0.067630139291697963 0.12843976719427738 0.13687672218784927 0.040323237622745131 0.10910331667082582 0.021289915153346464 0.087519096395901136 -0.026335098268193607 0.0095388308123976352 0.046539927767330264 -0.02091836836062257 0.062750487388962287 0.045673169483540881 -0.038238383607863961 0.029531445606003331 0.06629558445485928 -0.045712207915147685 -0.015168356262374508 0.063846201827033697 0.019050666006325434 -0.024613512739249804 0.023382186698791465 0.037342065082473286 0.011738488705231278 -0.076343845196100671 0.043566045630654845 -0.11287554776175986 0.03573693211034331 0.094322296561283756 -0.0011992849212426545 0.042109802761869493 0.020833277167290522 -0.026279881647675075 -0.042372559506430145 0.0016757202534986903 -0.048299307404976406 -0.073040697396107718 0.084045454930981076 0.16899499979011082 0.021397462337400648 0.041241137971567747 -0.0026789424889185334 -0.062473920437020942 0.12306154139012752 -0.027246841068616159 -0.097835519003156221 0.03353396871002174 -0.025556571117164844 0.034289832920693604 0.16072961727956367 -0.081634324700205832 0.026506359623563742 0.011994845179956663 -0.012157142467439853 0.0089758000046183898 0.03791634422483018 -0.098720320443931295 0.078397865435002489 0.031355331143750914 -0.018377549360204914 0.085688929751613185 0.065799609631141009 -0.062709755467064393 -0.044726307635051192 0.088213132788846252 0.081095864400697465 0.16543771043825567 -0.10814780563498741 0.00068913123612120587 0.093034505838688955 0.040939764079803917 -0.057029718989824077 -0.062115716320635415 0.03382180222128376 -0.053188662549281562 0.0012010980075886583 0.036892215800948903 -0.080398910388935971 0.024439977897707021 -0.042940893386081279 0.045602915727905882 -0.046186743637107834 -0.030002413827106354 0.092884188967078618 -0.019009704896774695 0.052227846227707493 0.087225228498450658 0.033053453754891507 0.0011136469613438054 -0.020880088548016006 0.13736053801068732 0.018619314778296932 0.016494756844426701 -0.057982708409942151 0.032929646134366851 0.023546049102064093 0.039909400665153742 -0.014037858493357687 0.098951818522841406 -0.060406867283040205 0.029853292543741368 -0.14290599710590884 -0.042390072259647221 0.044890993667492787 0.018085974320251993 0.073193119195680584 -0.0087110787077748619 0.026011669289188657 0.02988433275581941 -0.014610501727703416 0.0026633502210095896 0.044120740283916264 -0.080666342776414671 0.089356962611512589 0.11491229243377524 0.011111612030614833 -0.061628712475754251 -0.016924266058105385 0.027072713122212915 0.0027631768272889982 0.045244987517689912 0.037242856496146781 0.03575270877098146 0.00018076679387475999 0.072256802920256782 0.04124113798203783 -0.0026789424807789858 -0.062473920440989858 0.12306154134787788;-0.035158649546021228 0.45159020388879717 0.040877374097508766 -0.078349297235175558 -0.00086980146375132653 0.009358230147642534 0.085559739779055927 0.036298665159785311 -0.028207463957553761 0.06737256455650871 -0.15231073694762812 0.12011561934093944 -0.24205030106116474 0.1719939994442041 -0.027981774055884433 -0.020767250403406542 0.041590093016697832 -0.029439049356632527 0.087837617646860239 -0.20692465876750868 0.090872699216602154 -0.011209807336268189 0.11325353916263915 0.12474903117534207 -0.074343062603166074 -0.2326472575588221 0.047002138226682429 -0.16187087206193143 -0.0097558721316704476 -0.0090573187477186509 0.093942619109142964 -0.058409475868468654 0.062168061233412016 0.052797436717412043 0.036942628649130095 0.0011084015737732465 -0.052725452357303082 -0.049756172017261818 0.080921235112834736 -0.082053449903640649 -0.17736260232348922 0.048705774877582562 0.16727939460018831 0.066646272002620688 -0.062064598522271225 0.020688007092647339 -0.078553263758432412 0.058694565293402945 -0.089940458923015471 -0.049398922563110272 0.12650409075941221 0.0055754901456830184 0.032681091617337489 -0.088710424340662702 0.072856922849527619 -0.0016007238392929822 0.0065700247455686605 0.059444996560839423 -0.054857406601968361 -0.06820914581037775 -0.20031624374980825 0.1256163087739165 -0.034529307458295272 0.095803395515089998 0.14551961056911483 -0.011955783936566777 -0.10650875420463324 -0.074014105854370488 -0.10709126744951467 -0.19200477263122565 0.058128963482433793 0.059251036390125411 0.056658386736636063 0.16115911284315371 -0.50281328999842601 -0.042292704427543563 -0.080751159962098765 -0.043312430045639186 -0.04633060821726756 -0.037444052745486511 0.18667107289692045 -0.26353000446538416 0.12094861638427044 0.17904547327416642 0.21233398796289352 0.0078647421731951328 -0.024579111187297102 -0.13505048741060272 -0.17623733356676263 -0.1791312763841533 0.03185138895707177 -0.0039616888109713349 0.13418596028328891 -0.034565048150146736 0.0070652587823276476 -0.0061589812259324602 0.031484912085286421 0.052797409816628088 0.046996956340785878 -0.1356716551729516 0.086839529654458153 0.088859307279260127 -0.033688977424156483 0.19241471251971598 0.15924862400912504 0.034154688428197896 -0.10271010842666967 -0.001686308030200277 0.18635774640480113 -0.10370562094481368 -0.04460136859334992 -0.10005799736689541 -0.015800491762636936 0.053766298997813121 0.30187866479166892 0.1291929671105462 0.036443723351728859 0.16681717521869902 -0.10396480089576215 0.082936339187220098 -0.17238564352800859 0.077830426413037876 0.014638497315862165 0.020943847640084397 -0.23302746354590748 0.069541099643887314 0.193845607580586 -0.1223324385816134 0.066435037515383488 0.095336851479215667 0.081506427009457857 0.00097900377383664731 -0.0027528409132415708 -0.16768125868746547 0.15962372449449413 0.056274967709257218 0.0065925588561665102 -0.034430564927555252 -0.014818706739192078 0.07285692288612361 -0.0016007238315073953 0.0065700247750313566 0.059444996545217628;-0.055327907964709683 -0.0021657637718289517 -0.062528837830935546 -0.039128104658709313 -0.045673822651628934 -0.046833450869430068 -0.023995460454544475 0.031967494045745989 -0.14233847887065015 0.016567262931555173 -0.067138653907637527 -0.068115447241445984 -0.13953341691981075 -0.057917251214330584 -0.0023407449096369964 -0.0035506607233361138 0.017754182493009207 -0.044786392588634386 -0.060422542533372918 -0.28270470417765559 -0.043414740235381256 0.079806709610295415 -0.016004432582115199 -0.00035106954030529559 -0.0048008522042910983 0.039473999659987491 -0.051079865100615171 0.027153985286252073 -0.02364033795570945 0.02652817823060493 0.10371068269612531 -0.0024902600244542388 -0.029211414793763008 -0.0078163856216181497 0.030123674919923349 -0.15452472157421615 -0.029008062572855018 -0.088022689713166291 -0.06006800656223895 0.03541395816689101 -0.015494793539622577 -0.098383501591405076 0.15158823527894918 -0.059368536145272183 -0.12330050007585316 -0.06145958482330148 -0.093086859894563501 0.027875012565466536 0.085442681330893208 0.1619603798307224 -0.13490640672615817 0.024945242452750736 -0.11834268370899523 -0.015114155404545368 0.078539877888978871 0.072332439178003888 -0.12956156758327361 0.023065781672422868 0.04965031030639059 -0.036416265429505899 0.0039897460148786259 0.070660152832453721 -0.11148564191168762 0.019402989755197754 -0.10385693986915255 0.10511513692832264 -0.14288089614284891 0.1459332258373004 -0.071794919633719381 -0.026328918871600892 0.0038341825932438744 -0.061573925535397166 0.1653258437547073 -0.02283184216109645 0.0089872603760052759 -0.11501253184765024 0.14544566922381361 -0.0012817067750575115 0.033697687824072807 0.066791971494914448 -0.10884154507962797 0.059583137114337464 -0.0037636146416760454 0.0023490306411782314 -0.12176109991639028 0.075935793257671025 0.049786350509618993 0.0080635446540700297 -0.062276308950854974 0.042919926897578127 -0.022061187629119766 0.081754143571759627 -0.045862338645844936 0.036355158593418528 0.051630797085080601 0.055798542121550936 -0.00774315140069617 0.067815403208327102 0.008033772059095879 -0.027883541905735828 0.075665865581106828 0.061987184475587924 0.045368006318057048 0.083985145883488072 -0.046081695394400046 -0.19329882148567287 -0.02427716743547775 0.08513890812953627 -0.12185006792542812 0.052739994571591564 0.04746023675898052 -0.019823395321609285 -0.17684353262884273 -0.028158066282086208 0.035686490358344362 0.12172448726875638 0.19122686230127911 -0.052509346835709771 -0.10483288362540398 -0.0035588315300300235 -0.10901944084863228 -0.15395122449961157 -0.00039030711381523621 -0.10817631637670029 -0.10565414982081134 -0.023902039993129284 -0.099962757036667363 -0.026674583746832868 0.073807790593114958 0.065598338563789341 -0.17788740087746291 -0.070431616395111418 0.11743979205779859 0.014363032515324324 0.063209228113695282 -0.092366521206768082 -0.05877745635979402 0.057881446983882756 0.009368385192591774 0.078539877879978071 0.07233243917085852 -0.12956156754972628 0.023065781642947061;0.019089674455467966 0.020477519755724399 0.03632529048559547 0.11437542818578675 0.14871324244750381 -0.047732843588831453 -0.022993828776919082 0.0006839771858054678 -0.024254586662620321 0.025157939807441004 -0.064182997754341983 0.056666985072393018 0.067258793119520516 0.074020996352404514 0.056608056934020462 -0.058896831512676086 -0.057473727324374606 -0.018422636262396975 -0.031283395960829824 -0.14548121731880106 0.048411289606169534 -0.16206853729717 0.14346770001872122 -0.05911920507194382 -0.024834128702839488 -0.022460288659097438 -0.024605686042287852 -0.080920045776091271 -0.011221458049362681 0.074017164621504483 0.0502007202933622 0.099055912815704444 0.097888705880281035 -0.16239334353218912 -0.051503898370105682 -0.090032788671033509 -0.054154224547671562 -0.077407381875265469 0.047153733410460572 0.1128316806607131 -0.012400503466988245 0.10077622347685952 -0.075610080729956675 -0.10050454917544073 -0.047848494392285598 -0.070411360767608788 -0.057989662028208003 -0.13293646552450389 0.058100395476912016 0.0085597084242453967 0.087697068806751335 0.019118633580444171 -0.1322221863578924 0.01576971270039371 -0.098283504864978583 0.048182680602178569 0.092481889388616415 -0.14683756139246204 -0.065278928373655704 0.074383532782715034 0.022625639371006371 0.15475163245395085 0.11833346465272193 -0.097126971385511809 0.026565556448944167 0.0081503620168190544 -0.019730611542235148 0.053951924277135674 0.14977735328062802 -0.0065835188578064266 0.029593274410149417 0.030172799261860967 -0.041139291477906438 -0.083607604629633625 0.036572789602715726 -0.087513611671177827 0.036293556549742534 -0.087975391774478898 0.072971167325102795 -0.033227694400611199 0.019227564527527868 0.0531202351821317 -0.012040538171694355 -0.044697140495333861 -0.075031755921999163 -0.12548523299009409 -0.0054102294155013208 -0.020650507919805546 0.030427904091816654 0.1031410240925395 -0.018598124363943997 -0.064297098413446649 -0.043340452134324955 -0.029159237144111082 -0.0036871534991963308 -0.11379296806633485 0.0073750267099808118 -0.0097889669199052749 -0.0009613316933085802 0.076719519355657753 -0.11176687628019505 -0.070190202397994853 -0.043315239968749003 -0.073761386294973447 -0.048333454853690554 -0.14968009287432035 -0.058647890498742639 -0.029858949492373558 0.021851051621370916 0.016882272629350086 -0.053664192480230216 -0.060485034591670518 -0.059289808613566287 -0.020718666528791251 -0.055177500580465902 0.11820339492243481 0.010813223643309137 0.023748525215991627 -0.005556475121393894 0.0050746779953230042 -0.0022279387197863413 -0.01538518503326786 -0.086563721523485918 -0.021858694398608873 -0.024994345687871174 -0.025081212083455307 0.072158128302417621 0.036014781291269865 -0.033093657863927893 -0.016247474659225925 -0.16890429907847612 -0.0017481733144741993 0.052016673536480415 -0.03600718019093252 0.11370136538758338 0.016969154020315329 -0.046971324578318374 -0.027533440580623032 0.053171659845223422 -0.098283504853387813 0.048182680577499373 0.092481889377712928 -0.14683756142547721;-0.07425487504924734 0.21181485503127417 -0.062173024891879571 -0.0047903522887122133 0.04242871619405221 -0.035941906963497403 -0.059045765743367465 0.073861479741286942 -0.015806458203461424 0.11836120727305824 0.087092769002081238 0.099873123189159668 0.092140713326859539 -0.14368507994164098 0.26423661316328589 -0.11768491129412981 0.12604403122448157 0.034493115256401113 -0.06641001483719354 0.0075676283957514419 -0.077430580290466358 -0.022526547052806732 -0.003959406069583768 -0.10159324713039695 0.037820593387529154 0.051055876814508031 0.053315717672309977 0.070325177776282874 -0.035016352423206443 -0.045600795370388456 -0.076046057481860982 0.14992309985494956 -0.0097636389844224201 0.014257111058282397 -0.068608307868583171 -0.11277363230787725 0.099190984406733088 -0.14147591197074788 0.097641719683216069 0.058002908158647705 -0.028667266797575478 0.10858643049834661 -0.038020801614017892 -0.090447782187875525 0.22193413180689453 0.062559916751553313 -0.052094450338813353 -0.037058015021087416 0.046104641910587246 -0.071181344746991476 0.054209206498731587 0.027323226291568404 0.017813212438944508 -0.024267016525141794 0.32140005519703441 -0.2669348204589142 -0.1953656487238086 -0.026997467998947526 0.011866238083839303 -0.075938739414475265 0.017818933916750331 -0.10721577678057233 0.068231826749515195 -0.22830472150626052 -0.025145417542952336 0.24720392523165502 -0.025295882495483063 0.18593713570531195 -0.078463825417744507 -0.11007565893859604 0.063802151361271181 -0.024982025706576046 0.13362075561026626 0.17480850669213685 0.064774699067569788 -0.12369074692910016 0.17304779342898122 -0.025554423858120397 -0.11017585393941158 0.055744372014625641 -0.14637890481068272 0.109196653460968 0.12156851099227434 -0.033904198490108978 -0.070955245492565447 -0.033202068195766953 -0.079520505344939513 0.024594321662190888 0.056629352206340196 -0.093928294486433708 0.076687681329541749 0.027179185221882486 -0.11306535841986319 -0.050740495041715745 0.098729241237105303 0.14699757248944367 -0.00051214182281801232 0.035599645300824337 -0.0032108677731609845 0.12510286047998354 -0.0075531101778256214 0.066256057779267866 0.047410584704355774 0.0039502664303449715 -0.26906239368349211 0.00043619892014720398 -0.013842917676928397 -0.11741195281903101 -0.01065845361858816 0.025132710383137864 0.085738261763860207 0.1415081124689069 0.18108602003208896 0.037810761055814116 -0.023671878265525893 -0.16175679205472759 0.17015305387558877 -0.0056123945350224688 -0.075040132628893905 0.015598676978231881 -0.12299623938197464 0.0036369252521814446 -0.010671528933720399 -0.097634148717727076 0.011685200960843606 -0.067011028331148761 -0.078915837447003478 0.011614904861475765 0.18694850328895354 0.032456361973936351 -0.067813649671600681 -0.14939961202638724 -0.06120147622338265 -0.057017077737036188 0.053716962677334695 -0.056079533286792278 0.041438891475073458 0.026124376693584788 0.07445535824385871 0.32140005522601189 -0.26693482045026212 -0.19536564874551327 -0.026997467968173143;-0.14964846590806027 0.0066837991719409431 -0.079265425639353279 -0.078600238969109698 0.088920001163198259 -0.13045693850950713 0.079556517578130148 -0.064727898370028999 -0.04785161245490805 -0.12502358272464528 0.015648129083194268 0.18198032258023719 0.0885369669745108 0.18716530331051229 -0.16315877191802558 0.0067633402732375182 -0.12422526598593216 -0.064483146711004719 0.014191346669581731 -0.16292613006253037 0.11213028134573294 -0.028191257314931627 -0.051771378772818406 0.1168572370735524 -0.10821523013957615 0.028458328811794598 0.11325175204718128 -0.040740327012069588 0.10130288938921986 0.10550410807511942 -0.037520926454346563 0.028817820857176719 -0.027758220809149595 -0.13620614591176161 0.034301483519815414 0.1065299398631368 -0.15514320905950163 0.029701022861680977 0.072524272370595666 -0.058660325349066372 0.073705286408848644 0.055734825716516542 -0.01625784104865154 -0.11522293994454194 -0.18207267453249773 -0.0052309591152870103 -0.058253114895664447 0.048653647088053073 -0.13417180059917705 -0.064397316108178879 0.15294132688414674 -0.058385074701826842 -0.063685809309535019 0.049784800317516045 -0.1977651271187138 0.086551717845429421 0.096329909463940766 -0.042996797455593649 0.090213805636400579 -0.0746949825435997 0.10039324292557016 -0.078093442278523828 0.13713443342282766 0.035103232005656113 -0.10851600221321782 -0.099311507257547754 -0.011509093589103802 -0.035653536246856854 0.13811943684101541 -0.12600809689719619 -0.1117318523257573 0.052786485373937188 -0.051633572421262861 -0.095338091034020175 0.08301020817904689 0.15942255361926172 -0.13486079730447015 0.17198296272264671 0.085077207976397506 0.03981006026359192 0.084508090309253742 -0.169446086907729 0.089770846010264208 0.0016925050771495645 0.093223020132483819 0.0037051255066854367 -0.079546763578902557 0.088374993153574083 -0.042858370776538812 0.051401170156277834 -0.062031534280450627 0.070722051944183628 -0.0093552400520165811 0.024421163175672736 -0.035519231581940383 0.20265066814619115 -0.036643886806755531 0.041869314067545141 0.1263743093426824 -0.088081419303205358 0.063005049443890335 -0.055591686594502268 0.011658543429304639 -0.077579583960304663 0.033549475523811358 0.079445276017661937 0.058948774579575758 0.10002622737293222 0.019636156455383105 -0.051007703538919702 0.010603353807825639 0.032045094354997777 0.2359484422937457 0.1246859885001078 -0.12584349396057601 0.060986146334401373 -0.031993908163003681 0.08953526759688063 -0.028637148068419372 -0.067244286132657247 -0.16560629823354522 -0.053488006754582533 -0.12364710978574632 -0.069180948013153512 0.036493134994975286 0.12443928124217762 -0.053225112518557306 -0.1281035175862435 0.040427811001050626 0.077637369356463565 -0.071629917863519285 -0.14845496567980693 0.01997491827131663 -0.11341888951853805 0.1153957893966653 -0.045587209320819888 -0.075573550966957934 0.010177990078840533 0.17865450780254868 -0.19776512708477134 0.086551717838652092 0.096329909472868014 -0.042996797435537394;0.037493831303791837 0.062653360088165813 0.021335075334636133 0.072468577451834007 0.012361825334096339 -0.0082517706691377143 0.06250864422445912 -0.060502896104078191 0.0043331482486577266 0.03535196815654619 0.051191920710131074 0.066346321091326724 0.24060845483961257 0.010618446904191087 0.027472333613508301 -0.032607274843260224 0.00033671638749120311 -0.01110636777957485 0.027865171411645635 0.10368179941304481 0.075441401404977626 0.089060017516573331 -0.0179183612778126 0.021630143856729983 -0.046527019780577647 0.028847525454677038 -0.0016357482511195325 -0.11328636878053311 -0.01478448704443334 0.12068294813498821 -0.006510059189642807 -0.069731849027911075 0.037228972371123173 0.045319404634745132 -0.00081840811556611816 0.027765258362857662 0.028046560677246295 0.1479114553046004 -0.082207199760633107 0.0028200043362950483 -0.057382605821111134 0.02127810696425193 -0.022649706725816371 0.07018741481187929 -0.014809485826581391 0.026988994051992635 0.050687344631716084 -0.0092404311645039421 0.0034817347133399771 -0.031572213390859138 0.018885527673305036 0.027044021280472574 -0.018528617954346668 -0.040033398190766102 -0.25355140359822331 0.056553738520278292 0.057090030757494088 -0.037702904900679395 -0.05028806240815123 0.0059157877419589227 -0.025690920429232766 -0.02164711202189145 0.055084462627586185 0.014189592305375146 -0.057776284583726537 -0.0091682556072617584 0.08202054183150552 -0.053974747375459847 -0.040543316321040336 0.049338411192496552 -0.012506424411230092 0.0046891391451213621 -0.052478282190507271 0.034709676494382627 0.048677672130893627 -0.032053070819568874 -0.042974717126698779 -0.01749803540137173 0.078715713595639003 -8.6639325279833947e-05 0.035902969049872904 -0.046985505813548697 0.016899618849900943 0.013525996235720971 0.011898755545816408 0.054536556199571123 0.047865211589884153 0.047466097678243072 0.027372076736484653 -0.0075028235566188609 -0.002481303508534202 -0.013879745090121907 0.0085381672940273504 -0.015208117358991609 -0.061234534202009 -0.053301961746598028 0.026870446853654837 -0.01116590309353036 0.0099967715788229824 0.083520977916822253 -0.063514738042617397 -0.082667754015637598 -0.014310691207093482 -0.023644893076795077 0.14799638259842129 0.01377484633992258 -0.046279536957256812 -0.048034698448966073 -0.03422318919446616 0.0069716611818747129 0.15095694096647971 0.038123678671348776 -0.025338252518568284 -0.051079443689105913 -0.015417781405131272 -0.17240953199045542 -0.12315581977430334 0.022888588223809105 0.087669430321126576 -0.068544811007964251 0.011626009088668862 -0.072473315435190463 0.016670932282634356 0.047326774139182723 0.07262889821088607 0.041432753074042789 -0.0064587112877527841 -0.02377091210956974 -0.019574966066256059 -0.032982357485637659 0.094247012929203108 -0.012881577628185779 -0.065509813944645071 0.012194717368083518 0.02491721441673117 -0.01771028571442881 0.049295028790511404 -0.018188012986287562 -0.049823706171698852 -0.25355140358541717 0.056553738527474987 0.057090030754635632 -0.037702904898213922;0.15610546556633459 -0.23397696206548271 -0.0412259803326573 -0.19127201039366809 0.031910256440746319 -0.14797186478644792 -0.050502877112014795 0.07693557176527363 -0.017092076381401491 0.16659951629041247 0.020808705308755549 -0.3019433282065328 -0.26596644199342129 0.024301004907043091 -0.13344962611835712 -0.058410965445618336 -0.0057916443063906146 -0.1188811029693463 0.058714168300792846 -0.05887704482233036 -0.03917599298041944 -0.15635276154996686 -0.11319279675104145 0.12368155546871627 -0.027805023381814981 -0.17188710578756178 0.03909165707863943 -0.11326779561675775 0.20984252756563113 0.062874749832220009 -0.039851121940409039 0.03500052016507748 -0.084909731086792811 -0.19147134676787672 -0.0042207079788319441 0.12423951320264456 0.055790309909830645 -0.2378027461457016 -0.2040698597336601 0.2191643714988307 0.0078001501535712742 0.02188530562062712 -0.10278499450645649 -0.073261063567509208 0.014147220573059435 0.008807986354232019 0.20970400747335841 0.11833587588609555 -0.1469814434289603 -0.07570758831563465 -0.056501776146178032 -0.13268510138224851 0.19127560548008118 -0.16311013570426242 -0.068644164479924427 0.14532613865453936 0.10705478118128434 0.045540461990713217 0.036115498702108832 0.14063565535428799 -0.070913671978183629 0.12850715262443285 -0.13204869719818332 0.027337083953533476 -0.12904273355726095 -0.002958085530705114 -0.0050973294783707695 -0.091517483761924173 0.094621196138081454 -0.036487471482737142 -0.089094680711409843 -0.13184407375664686 -0.082901871149539827 -0.14270051824128152 -0.4017133395777136 0.10782436219124485 -0.073876136871927137 0.05503668995274924 -0.02185403280584489 -0.19055208613746025 0.048113092303048124 -0.13565226728108704 -0.027815231771026214 -0.089273750769503918 0.086063370227577263 0.01666256288863115 -0.042794295064201356 -0.016496785577326093 0.072568673597669914 -0.084786160660437704 0.25910575076380482 -0.22847200560075245 0.070506348565063243 0.074515132511172116 -0.025381309342225409 -0.054674681045957525 -0.036638157744273987 -0.096534449729528321 -0.16419043457556731 -0.3065715052388634 0.0096848830056838094 0.020320068151734604 -0.087759576503137593 -0.0033329796413622166 -0.30878280154848203 -0.3229573751817677 0.0077103709454661292 0.1222592615345993 0.027672323117933665 -0.13164568945540547 -0.0043669805158780385 0.20898903116835277 -0.054629858605700861 -0.020058823040871365 0.086330384545582284 -0.24133989306666703 -0.020452512690325993 -0.18863254164304982 -0.034680885286816218 0.11842286666848172 -0.059616526321216841 0.19491653226646713 0.17622488514569629 0.11490275807003017 -0.19917863655458098 -0.030786423338685934 -0.02951090573671826 -0.20722869809347855 0.03312932086549545 -0.16074119603392492 0.025180730244916547 0.10157638836822909 0.11197568611675064 -0.070678569120044485 -0.20040278236564385 0.023464295891946825 0.023883229115119885 -0.052456530578703364 -0.13506446553293092 -0.068644164458498538 0.14532613865831928 0.10705478120093651 0.045540461985771163;-0.0013754934349110685 -0.016966884363714858 0.046721328145518035 -0.15375788459090522 0.0673222550636665 0.038999773645362723 0.058657893795775733 -0.013834272382726014 0.05294451794331128 -0.0035584253142603903 -0.16575794050335577 -0.13340410377825129 -0.12551355689056123 0.063728851217303345 0.015115099688721243 0.11107712721573414 -0.08953143330495128 0.042803057818290531 0.15554768587841314 0.18469126397548696 -0.012637896322823047 0.087997628560633784 -0.041317256385279333 0.011751004568565886 0.13906435424075131 0.034403154077662312 -0.071996042770293908 0.095983027041929028 0.025118718054226819 -0.10057096656487098 0.041990694319800376 0.075441979214398408 -0.036594165893747116 0.066716196551976054 0.022787975219034133 -0.14150093034385949 -0.081912939247096833 0.14938795780024941 -0.093788778541351953 0.064618990781235494 0.057571943149072484 -0.10462461867251084 0.11637054172558634 0.14560190643309948 0.015079963602220104 -0.14397834505705445 -0.016214128456647398 -0.02448230829023678 -0.063062249083434732 0.081254595318607306 0.061449466470045518 0.0099066988329684774 -0.055155864440606328 0.057084555939436739 0.019938982874507825 0.051057643954211862 0.045223149938670645 0.12596828818231559 0.021680322297379585 0.011224286045342806 -0.065565746241606798 -0.1975505275120541 0.12833445328875362 0.20128251614147177 -0.12513438781202918 -0.025899826038236505 -0.085203937844243363 0.030884754952848446 -0.14965272420536865 0.063947977862551297 0.061661823077015315 0.023266049346261638 0.15066497775781484 -0.051037990592587588 -0.020100350100591649 -0.06810123628028128 0.29882834142970088 -0.1294141333183749 0.016332364926077782 0.16708320026880363 -0.058047083715549806 0.11819654878690604 0.059556288196095396 0.074295895428347858 -0.082395807035084284 -0.1903497632722129 0.0054467956723755614 -0.15783153510256262 -0.089356388368741185 0.029692777790058932 -0.060509146577279301 -0.09178260516432972 0.0048439579192993036 -0.10012952314593761 0.058606571277528961 -0.17148292189877398 0.012813226628958967 0.081729787662092476 -0.057378079962161148 0.05904435937080061 0.060034168206261188 0.066673888153521182 -0.0091607101410143919 0.12148913939849272 0.22966836966166182 -0.10826842370909101 -0.11189259232002989 -0.17991765872753482 0.040110004020507004 0.071520967506495128 0.030941686946859757 -0.13430889759712131 -0.32023654892316544 -0.20260979324560599 -0.053285689361229009 -0.22359891655767186 0.1394942016569167 -0.052420748261736448 0.067068788976012692 0.005367919703780864 0.17600400302793026 -0.16351545648788951 0.27443461203399233 0.0098606159436793617 0.078965442629488916 0.27581613771180546 0.090200382372604249 -0.0015445324662656512 -0.13587634722924616 -0.019468811490959526 0.06546872588822869 -0.042769606055205342 -0.00041319623569170281 0.064234706541366829 -0.1437923063018679 0.22013465815758607 0.023313808331815202 -0.03589878826559488 -0.015957978161265037 0.019938982821020641 0.051057643955233788 0.045223149966211088 0.12596828818435998;-0.062251984806652498 -0.10950498089832128 0.03958437820587854 -0.093673093099748792 0.095643677421082138 -0.06716341059501639 -0.0070270933845632405 0.028130083962546043 0.056864207212562738 -0.066465129448968471 0.13346648748530002 -0.11671446740589737 0.048379208130083451 -0.029795260430811377 -0.019690236403982323 0.023582666141064298 -0.031725644120566346 0.077314710399162198 -0.023876664738342823 0.31750846341416755 -0.04747224411691111 0.083863952320721968 -0.02716954270768674 -0.061360180290484935 0.081360770715500783 0.083485437157172812 -0.063512230274612433 0.015612461524226422 0.067175231623043258 -0.14189901454670617 -0.10998046137861436 0.077653586305745176 -0.18498882989971088 0.030276841319304748 -0.054327561721190923 0.040297382668850433 0.052537501474948803 0.34487538392318789 0.20136372638487113 -0.011157112444696639 0.014446546563103299 -0.059210847344514136 -0.035104719933108305 0.12068466053737352 0.017073048698772155 0.01742681191998996 -0.025969533655601014 0.039190597977258393 0.059799893576292396 0.13102047029552821 -0.085349526376024609 -0.013130089039163873 -0.072092348654252084 0.086892983768367432 -0.10765247412750985 0.042233826760149105 -0.0075515556040606771 -0.032542916019129849 -0.062266746362632082 0.001399891657706056 -0.016676772252930256 -0.091225827633627715 0.10408764919134163 -0.068041336073876843 -0.087851490165254495 -0.0018680013354047834 0.067972304552760168 -0.048977880631239361 0.013962545808188327 0.010680146680835743 -0.10545199542440405 0.01688146371424994 -0.16443216476326533 0.093771079874253024 0.14132238948291057 0.045417592555909575 0.068674800186545551 -0.14623723112274123 -0.11193361828141529 0.028722801211298023 -0.090125608272642252 0.093337231274731966 -0.01742544292707815 -0.037693673706818108 -0.04040146729618467 0.013627171655174287 -0.030394164403445351 0.068327438231760046 -0.078843283957592547 0.016315901562711344 -0.029968755566142827 -0.069321089844916556 0.012741508626483449 -0.018352537996034677 -0.0025932680539588779 -0.02078863495895665 0.038393216744866877 0.059871634681465662 -0.043159685813580699 -0.014233590369085412 0.056675622245666434 0.026306585835902681 0.017106566977098631 -0.12137960390625353 0.19548064332306042 0.14871568183523934 0.035185719834598179 0.052208250347140148 0.031581780831315902 -0.0028728704474333352 -0.15643772403188194 -0.00087129733555184276 -0.11452440394998598 -0.066941194737923329 -0.055336155967260423 0.04273910397586763 0.015621533267541001 0.083378744584056336 0.019085657881624543 -0.19659115485197909 0.13982490910738965 -0.13909413664452322 -0.079809550546662431 0.094137139206757398 0.016453151722639066 0.10287179076825054 0.037520852444430208 -0.10789856787967105 -0.082735580075137691 0.14558007938138798 -0.12053809524027884 0.060175314721384522 0.046780031619061295 0.092368252066868217 -0.052376372731219208 -0.028329064231590331 -0.070576831424443737 0.069247223703966923 -0.11926583135177642 -0.1076524741403314 0.042233826772388537 -0.0075515556039693959 -0.03254291602196667;-0.043544080345513984 0.10169896773093762 0.060390442046581012 0.014097608789073556 0.034468660198162394 0.073145466808215362 0.049561708935261226 -0.12810320891340118 0.036949116301436012 0.040948206746885728 0.0087720326248077619 -0.082156619217557597 -0.037375416333129463 -0.056932735460506013 0.074386104369483064 -0.13758232509714477 0.2470509152446613 0.12056542296712697 -0.086469239746925539 -0.10524307180804626 -0.0070346145140383646 0.046556441368876225 0.048227609172149931 -0.092044754604378026 0.058540925911370972 0.016224479765468737 -0.030468861741151595 0.13550467408175115 0.046547319607027578 -0.24827635070477921 -0.0068253264714000384 0.053208285809865315 -0.094902089619310875 -0.054208523927484861 0.12750940888936876 -0.072235777499766118 -0.035250641876901155 -0.30670833470591308 -0.16879168015087617 0.020853333540033245 0.0016699179603691034 -0.006799091970186787 -0.024124453611339653 0.017269101027558242 0.26138956887085107 0.16814203407253053 0.016840575240358004 -0.062333703818563506 0.087189409467637563 0.044401324156759132 -0.089154004906351267 -0.043045119778500153 0.10060267649415726 0.066548261567709308 0.31617282323765095 -0.20145159619408803 -0.22154457216211854 0.032425360763559875 -0.060428358211201051 0.17741231355760462 0.17942512780600489 -0.0034259521924812964 -0.10422401430507577 -0.021377450424955258 0.06920421165185095 0.036927477432921484 -0.064075210471276317 0.03722609717136971 -0.17491050981581172 0.10687178797933501 -0.086488567419829701 -0.090531316104423457 0.015339689506735423 -0.0063474874739808526 -0.06044882822693947 -0.069304500481770032 0.032363110793395072 -0.04183248116680259 -0.0079260610097979817 -0.019178712524151414 -0.061007938575994715 0.085351322503126617 -0.012176312891049916 -0.079020254185706837 -0.044188393668085968 0.012899994589726954 -0.025246476647568298 0.029292635292175739 0.057352012626946669 -0.17349139308239331 0.20181202282900856 -0.068142348414707524 0.086104325143952332 0.039615240299291067 0.02255215510019061 0.056337389167140491 0.088087598520199942 -0.038721982709475904 0.042762198465761986 0.07428070329767493 -0.047757577735337974 0.036612951182977575 0.030990436375851301 0.095305483303946323 -0.38495530680888557 -0.14834818137073424 0.022656537422903227 0.0024780326504083177 0.085915955064996247 -0.083701335722184161 -0.066544156317780559 0.1023234184505153 0.0392459591207239 0.083013121712753837 0.082666046142575597 0.072963749828447999 0.15877525576201962 -0.11946326285078544 -0.060989830616696668 0.084385074768130716 0.11160079861610943 -0.023002513318022243 -0.065101007370628711 -0.022394342929949879 -0.13667434863833172 0.050749268621139383 -0.0038375327091476445 -0.1635896234712447 0.085659052979943556 0.14754849675690149 0.054106397423574135 0.117054621664516 0.021109551130968681 0.061938610343885959 -0.13242373937586266 0.10227544475717931 -0.052661343460870376 -0.031031993907959136 -0.12189951759487462 0.31617282322711171 -0.20145159619373454 -0.22154457217217946 0.032425360755731471;0.1594220082295241 0.13126632931030904 -0.0073592560035631634 0.031098323441224849 -0.033138833660135009 -0.033139075995299465 0.016041597101344063 0.11339534106303592 -0.09471456219720123 0.090323298632713656 -0.0030728430920768089 -0.047639593294638287 0.061317633516426474 -0.13178825022774573 0.098472390949084138 0.056660057544795146 0.11028245489207285 -0.047251451042383395 -0.053968658639981903 -0.24423007605621291 -0.016549409365829215 -0.048609609459376209 0.15309154938684533 -0.093824075679967839 -0.048651361468737414 0.034607739997172933 0.018773822054512591 0.074728487755765099 0.03228327132004722 0.092030211718353253 0.075139233245892917 0.10924771177620547 -0.075897193206043573 0.076701284864255134 0.035942857611424378 -0.14969556422417954 0.11971372129685108 -0.21614922975450571 -0.19610475970843663 -0.022412477327726586 -0.049001952382016122 0.095452424606324637 -0.014183143235180443 -0.093092133144903166 0.0084465925597302198 -0.083675018475788274 0.042244508730450887 -0.049729137556845653 0.0018387124773811879 -0.14032311405680159 -0.10277518778090138 0.18825494191895809 0.14687363922898194 -0.089339142353179607 0.030757750418182603 -0.060472733814723859 -0.075142345373030675 -0.15625344893891438 0.043528219177095845 0.032278865541318855 0.015055023842067555 0.13885035949202545 0.046506900723657957 -0.099725078554932831 0.050888402282217554 0.098002438532479641 -0.094412596233245841 0.18220667383424263 -0.12647210593561206 0.051706068557729204 0.063360846766040077 -0.068409989222068826 0.075662484130361168 0.040064391450173903 0.016936270726629489 -0.17880784082163642 -0.15399267083237875 0.062678249379877343 0.089080474199257742 -0.025220080157055135 0.14387755251480008 0.0057235553574914826 -0.08240492324981287 -0.039091562490178929 -0.03362253625124615 0.030837218146621517 -0.00057106951023917123 -0.091525143503622855 0.055363676561075686 -0.043770011474973419 0.016788768271129982 0.053558622965070281 -0.040503426229704514 -0.027675546599257982 0.07311067620191615 0.077185217097400324 -0.035732379127453119 0.0067637099317251984 0.023781064837553791 0.14534933020717972 -0.0050703350312295056 -0.0098050067055708342 0.041111326089988395 0.068893104005351549 -0.22832282994853648 -0.26080065544603059 -0.002699461007318482 0.033428134584036387 -0.17142618364105802 0.13379649097435681 0.13700093755629647 -0.038420480068985248 0.081515438572191887 0.027967904331380977 0.11043595231591948 -0.26966191944198631 0.012500183285901956 -0.11872247311967013 0.0034037366875150029 0.21673168843869983 -0.12700670655974811 0.058720953799156206 0.084438799689559127 0.11934395819917908 0.14073749695186188 -0.12387416080406242 -0.05832992273155943 0.095815844060202299 0.18554462574513461 -0.13319500062192413 -0.021598047864842967 -0.10462267474353344 -0.053670035024545308 -0.067394524033629583 0.15474829560078535 -0.10722427438889121 0.15637487384782173 -0.01097433070269936 0.10327738770558069 0.030757750419720672 -0.060472733813351241 -0.075142345371867508 -0.15625344892413928;0.15013472488437304 -0.027952652428641474 -0.1123120778478911 -0.013645887485966832 -0.063712350556708389 0.076369011559181271 0.062164582120757601 0.024001003262425085 0.017464188711533154 -0.064082900526501813 0.035635818621628845 -0.015415609009498626 -0.20202955579776954 0.026006833504321061 -0.010324062569332155 -0.092119717366950279 0.19021625348178145 0.020815210256725402 -0.023108756180901788 0.086066856177012027 0.12113167229022272 -0.095141700001272728 0.03963712785368801 0.083837870640675841 -0.16711262589562581 -0.092635283812989522 -0.047707643520345594 -0.01684122834948892 0.00098351531702538285 -0.027352993917499565 -0.0056811499361414672 -0.0019731843506482849 0.1452326536446337 -0.1163012146512109 -0.064696321351081984 -0.024602587766337437 0.0008301839350394125 -0.016195209756856312 0.049186623350604884 0.095856472919850153 -0.075885335631465337 0.010929639346155465 -0.043843351852848773 0.072778402921213736 0.020854863805870299 0.061427265251741629 0.013751552217584159 -0.030663545226127367 -0.13148849303479634 -0.033261626385098164 0.030835914612122685 -0.0083536370741474544 0.029610469664616737 -0.015906520462042658 0.13830534999547056 -0.022121381642532714 0.007383224869689866 -0.010943368402300929 0.0016116275029590401 -0.08533617346247542 0.066272392365912092 0.0044984251186921008 -0.092852537185753869 0.032331151473211195 -0.0082569284392176243 0.08655686413798791 0.031860277238649898 -0.013384760486268311 -0.024302865859222141 -0.040004045664609258 -0.10375626109462774 0.08513046740719192 0.06066513601143185 -0.088078818939791415 0.0069124282929278347 -0.024005396573816937 -0.084561440041688404 0.059225742807490954 0.14909348091613081 0.024032056155488927 0.057938150070237039 0.050955264477636458 -0.17638147947079694 0.10310916182326607 -0.056066136061280566 -0.051589791930144069 0.07516044505420226 -0.039614799728610969 0.078336139390871848 0.075858523060723507 -0.024632989047681037 0.064338718873236694 -0.12333521619317854 -0.017496370332658419 0.070305037262531636 -0.010296500018071336 0.021130569005235713 -0.0096861166116676018 0.020080463865190485 -0.026962780578737595 0.032563433689864592 0.12545776290184799 0.061541312134768919 -0.061523745257549119 -0.1307594282169324 -0.022634779798325927 -0.055856434470389939 -0.074478903476754829 0.075914202595770822 -0.046347105264891518 -0.041098064588282572 0.029804281801900655 0.081644650044576383 0.032162457756276928 0.13421595288948854 -0.012793050665601036 0.068362323648831783 -0.10971305364057958 0.089955170593185391 -0.027418448440844463 0.089088130960540357 -0.058366833794474958 0.045469368008783886 -0.0067310149060312036 -0.080717612086147306 0.086140758273691762 -0.013555957364447766 -0.12687030980231268 0.071587185987409277 -0.011928426121880931 0.088201627006147323 0.10642250801233899 0.055829894061680131 -0.0067729616288134875 0.018489838730853518 0.13418528557646792 -0.0039965767479101574 -0.12548412177135571 -0.097146333035582899 0.13830534994883181 -0.022121381646436341 0.0073832248364404558 -0.010943368383980962;0.22232713945966839 -0.16245958253470924 -0.00077166284214025998 -0.078490767836664199 0.0096123973830038907 0.055778430387359593 -0.090515511849541389 0.026521969094108457 -0.027523499900068558 -0.051638702112584714 -0.015008699520696851 -0.015730941370188507 0.0021481002414487091 0.11342822076906857 -0.0035447042780609142 -0.064549895036355345 -0.0093501862220960932 0.0073379944850647857 0.010531110088922734 0.081420330339736016 0.056527144037478612 0.045245673316127534 0.037574681127863323 -0.031950781346639194 0.046433240367680741 -0.033693029733063797 -0.031369676333332805 -0.0013387943457447971 0.00033940345726828536 -0.10861303524219175 -0.0046071685482248466 -0.029625651154062883 -0.049109979583254429 0.044329777976579693 0.060756516106036489 -0.023685317834707134 -0.068972587735607882 0.15347612928265747 -0.051952597299788808 -0.0056286724400619135 0.091541147179573887 -0.18003721348680063 0.059986156264743004 0.21107312450839233 -0.1223276245683638 -0.12785285910968722 0.076144520825636303 0.046616838255027319 -0.10409612289013621 0.049133146787460294 -0.037319461975300602 0.0071158177528765909 -0.00053547174660342907 0.039505782933333858 -0.10816800806365863 0.14003835007052323 0.22268978415868798 0.061745280108691722 0.022289765824643586 -0.052127432322478275 0.050624058763442975 0.0011788355957845292 0.024909986665145583 0.082232705027022082 -0.047227096810125886 -0.031257949745831744 -0.017077186915540884 -0.054221176616603535 0.038717191686939996 -0.057448924142443125 -0.0070989052523304863 -0.1397281557165061 -0.0028345358248946218 -0.09772276956078306 0.027487320034181605 0.027777354303129095 0.068202353990957004 0.094385442808278083 -0.067962182766612644 -0.014357482215529054 -0.10754590604159611 0.11344056923674077 0.089883840653891572 -0.084906670520626962 -0.040311720393459149 -0.050662540735389457 0.10464818197068441 -0.14377284912986976 0.0073182475577952657 -0.0052492619512134447 -0.1194582725290645 0.013858154096078788 0.12532207917994345 -0.010036337782418359 0.064701470168066558 0.12346393408710614 0.086001092869169418 0.045122178739988347 0.14380714083710486 -0.073744808885138943 0.10228160181951455 -0.048928133146577873 0.064356454614697842 -0.031308944848373668 -0.075229766985316485 0.10007027083653712 0.10819046466372134 0.028066821997458979 0.0033131351835230011 0.0017994800556847554 0.016002518387256626 -0.062875808692691368 -0.076454291031830338 0.026157531612890268 -0.059954837436621305 -0.0095173777273232386 -0.014292451050936799 -0.017387453019717461 0.054932852793323717 -0.014143270271375017 0.11971714944173603 0.0035587394785385157 -0.054825920235884708 -0.050778974074417144 0.045807969464935587 0.051268884154376401 0.055705444841979625 -0.09446256359887259 0.023331936997234275 -0.06559102544433712 0.067988495037332161 -0.0072788666851807569 0.0072274122440804814 0.022091821295885512 0.13151061515335266 -0.11215169743928155 0.0092959131983925501 0.059144116349436629 0.0078563147209624318 -0.10816800803839223 0.14003835004980872 0.22268978417339516 0.061745280120233108;0.15607166071527398 0.08663865501045058 0.073759282492603218 -0.040229603361094941 -0.13386529592092289 -0.0040734688305503813 0.036161208377416716 -0.024137441099149753 -0.040768856294160549 -0.047746314286436942 -0.076307304061541403 -0.18186192916125993 -0.0702858461377419 -0.023112401576893236 0.015628992700733573 -0.12914950371311903 0.018696134853195399 -0.025110569008686291 -0.073616963178376585 -0.059349934614032339 -0.16795885493380516 -0.053466151338929388 0.027837452454785302 -0.048541220756237007 -0.042809121486375015 0.008862764922711026 0.045827794546267848 -0.3062952696178205 0.082526940003282534 0.22035327515327485 -0.13509515020389271 0.20022417664793504 0.047935341057618187 -0.50367689538158344 0.24062369423282617 -0.25854392359971123 0.030146306789839691 -0.070318875284404142 -0.089766731584908652 0.23787801908086401 -0.056841487075077864 -0.089624327532530551 0.0087180960271568322 0.14377138292583536 0.14353798994526734 -0.017078993863788961 0.0074714089129241665 -0.18524985397161264 -0.055212405108437564 0.076577569984363256 0.035500743306065959 -0.085044390412471416 -0.16775804174068867 0.25360048792068707 0.092220031995551552 0.12471095715189738 -0.023498125521040802 0.053043864012771266 0.42608905419559973 -0.16952916743777321 0.37321408303924791 -0.065665654047939448 -0.33542055467138021 0.13326105388013515 -0.072958736805538216 0.12231095468768272 -0.25150727081092294 0.024894696918913679 -0.1259599299353053 -0.013013291101451135 -0.029533384513330391 0.12816497072410757 0.038005331132102957 -0.30057208532111979 0.042349473331452094 -0.2862984147609457 0.029940845514472444 -0.024461086566305894 -0.12825003577930202 -0.012536210736159315 -0.15709817462350617 0.018157123126560912 0.0076765233234721607 0.024637776167732692 -0.10735462946219761 0.078590626953535206 0.061537949230300662 0.056244201473787656 0.12025049341833821 -0.021277847028622808 -0.0090013748935008908 -0.011363735804452114 0.10477755475922466 0.065208231845700654 0.041327308008546448 0.088128117846515558 0.049310965190966172 0.07351828564039975 0.087024677292078773 -0.036486718227995797 0.071021658283845684 0.04703006524124969 0.099489408611713959 0.052622387349791022 -0.027204521789298958 -0.058967417034084035 0.14602891296526199 0.0025907340113995574 0.016972387489674879 -0.025574975917965471 -0.13099266462377976 0.068133909712766602 0.026989922612103201 0.048680415841948252 -0.19772625474196909 -0.077588485304379076 -0.065396398636786604 -0.0667452043481854 0.025872558450510615 -0.039103088490556381 0.085661772348577983 -0.076909418127040691 0.0073108737252364471 -0.29477516345744514 -0.16438881887541817 -0.066668717756957346 -0.037212382344311547 0.0039765531227914479 -0.073360069964142072 0.15573111219368638 -0.33544717720382733 0.060530294886415752 -0.043323040009379102 -0.10430950351235084 0.35597896036110677 -0.066894717267999129 -0.18121913339804921 -0.12346474632087856 0.17786613872458662 0.092220032000135899 0.12471095714053367 -0.023498125533285431 0.053043864020007728;-0.10616831933148436 -0.067779288041102989 -0.040002052769518487 0.092224239144978126 -0.057660362161427406 0.1367501157637214 -0.0084580740745884616 -0.035358692774326517 0.067702203761719038 -0.011077119919003094 0.080580902935945359 -0.034677894861013907 0.052480615422507454 0.022129633390770283 0.021987118489380075 0.041209368831321716 -0.079526717549262285 -0.0028449281923099007 -0.012883401998693846 0.060165898767488277 0.10081948726234702 0.093762461796177712 -0.092249519765046639 0.048592054695581553 0.010442791216718554 0.042076007476827139 0.028658717882049049 0.019201461209047106 -0.0056849193451745175 0.10206071841494127 -0.075245299266589419 0.13223180118906172 -0.060454798214869918 -0.04160421294510834 0.10338027271094197 0.03547167388625002 0.006788415960717495 0.0285061477395013 0.018692842955639052 -0.0059994386817564726 0.1471802449652857 0.12887401991285666 -0.20370780173027953 -0.050248557971743123 0.038652169809847675 0.10530238279030082 0.01995197741284346 -0.023570744300062403 -0.024689354397043291 -0.10227289554431951 -0.03937868452235211 0.0094142740995009876 0.2415305556535475 0.020100200303866823 -0.174056609274929 0.027518628309630398 -0.095353330819445137 0.043535217664204671 -0.057877767137526605 -0.11506822966051854 -0.0038813695816227178 -0.0020938727207896295 0.0030040780377483768 0.076093933080163781 -0.039522774024345897 0.021129013477394418 0.0050381959969685551 -0.15462205481975316 0.092680205640277416 0.037229918994294314 -0.03722478669178176 0.27461040062530051 -0.22596045141452373 -0.011853870819508784 0.0086775445456340108 -0.011279195130057344 -0.028922388156283091 0.18198868193521128 0.0064026964633560291 -0.087108168187724225 0.021156401805036418 -0.13395509498940875 0.090832055484664997 0.15082030237202984 0.10658045325822814 -0.062629244892564107 0.0020288607989866971 0.0050302180789138897 0.016879261685434448 0.0096390518008512161 0.030842342902548062 -0.01890007142140579 -0.030453107066120318 -0.017736651404103135 0.040910633331323963 0.01690505692958524 -0.094230329822734812 0.040900203109709848 -0.017277645111921862 0.11377285955078824 0.048455350926428754 -0.11612724235898088 -0.016386419395419412 0.096736628410862141 0.10283444763487617 0.069530613167292032 -0.099660751726062702 0.13619723350931698 0.020831373662472504 -0.020508556974362897 -0.065620589976687502 0.012762753780508286 0.14073729194607756 -0.1568285859071043 0.00095797391030208478 0.0019254008474261441 -0.1004022225071287 0.16831469500952598 -0.035148446905167538 -0.01927769308570678 0.045781103306474349 -0.01060147938132442 -0.10104346717872847 -0.073198351771552872 -0.043536155075389854 -0.1090780757135113 0.077053999903250445 0.15347083904016354 -0.052408687278217687 0.064826063921641128 -0.050372637622651296 0.10885454817600494 -0.041368929706872816 -0.048798295051348015 -0.024838268852865494 0.013738394316837465 -0.095788835201718658 0.075994001605656336 -0.044288620704792531 -0.17405660925532676 0.027518628315554874 -0.095353330859039812 0.043535217655855933;-0.031333004066289465 0.0087075931660667346 0.055762548818225795 0.12412906440887238 0.071999561781311464 0.015861182837467267 -0.058407585637571514 0.0046026134371879267 -0.0096711827619066892 -0.0049357651802113215 -0.013236891493137037 -0.13099726554744717 -0.048367105961038749 -0.086237870463225105 0.056144724099839116 0.0036651087326765603 0.098403318514703839 0.096841426592514393 -0.055536269456077446 -0.20100296960821029 0.030866158650527192 -0.10639004961740398 0.045630210634985978 -0.06601755855262903 0.038739968822332882 -0.060693831342362579 -0.048596832219093722 0.072934798143962559 -0.067734151602154416 -0.030351048591354225 -0.04817643491710915 0.13057031616908782 -0.074824536362676747 -0.042099390185816044 -0.010754860082087028 -0.041549231747924097 0.024022657103732036 -0.035099665770067241 -0.19710568312838442 -0.058063662873035327 0.13555578446263847 -0.10014125496784976 -0.015532089217910485 0.11542267183994104 0.049954050842256362 -0.072934472009242315 -0.0089940876867297698 -0.017697763971092653 0.13028685639297669 0.14767639548552522 -0.04576501192544348 -0.031712120435934542 -0.077973287165563246 0.053372763983782177 -0.026282918776582342 0.044009601888766153 -0.077947062802629516 0.044527024047281115 -0.02730664221790428 -0.042910897255935346 -0.019992737074758186 -0.040432316765410307 0.0029626452286750761 0.067449141970288298 -0.070356773210601423 0.0027492110727962097 -0.052033677361026293 -0.031863881636599228 -0.13606800637603605 0.044944335193987231 -0.063018784493045016 -0.076810274201225673 0.043874695351163936 0.018588230575650906 0.11778158239778305 0.031733877209609178 -0.072499150351264419 -0.12247967020575595 0.082329520161945599 -0.0028780952078619163 0.063097633222082533 0.031574138725632889 -0.023634926720712268 -0.13022407377124337 -0.056862985252036743 -0.050912119104070647 0.0064299767436983828 -0.024588332571434293 0.086228468908473646 0.014541456427361306 -0.037370265541556327 -0.073707348370748244 0.086778775067361036 -0.0099634667824074381 0.027109158294949316 -0.057668920185711861 0.041827710561425993 -0.011705188407956186 -0.061383259233776778 0.055905283092500278 -0.019509623552271878 0.076772301996624534 0.028148624766423137 -0.073242685895495291 -0.031116119147999007 -0.16012351277188364 -0.028357908651428412 -0.01963185807281995 -0.056088961970311629 0.062922831461830697 0.018098500827136557 -0.072585778412289997 -0.13332602269509361 -0.075292079120274372 0.016918499887159908 -0.021820431081241692 0.028123027264113972 -0.046928033993218758 0.036544276589262126 -0.00087977808297902763 -0.0021511766343843878 -0.15298160150209553 0.0007649036055788459 0.017125717657722077 0.0076749819467837738 0.11042278103808553 0.012472477151446977 -0.089630937738833696 -0.0091370616671725552 0.13416340182721764 -0.0464036190519036 -0.062282560625517187 0.012153140598570191 0.02192293637815931 0.017945703748252648 0.097286252687110247 -0.079145829450852204 -0.057998242006261524 -0.0099485119384942252 -0.026282918777418729 0.044009601892548551 -0.077947062804835793 0.044527024000296726;-0.023505313013683658 -0.016686253880024621 -0.052348515554625989 0.0071114328913015933 0.20618752725494771 -0.054346691342229601 -0.018206588778447913 -0.021643808343699618 -0.005185827868326668 -0.03827004812436622 0.07053625779292004 0.022153953243560592 0.023769152961228997 -0.025173320023823761 0.068522973343647472 -0.015829552530563142 0.011200643290820184 -0.011649473174398737 0.05002755696908924 -0.015070241596231515 -0.076117964370878144 -0.11604257431800893 -0.008185737461718438 -0.017693632345652074 0.072480723071199876 0.0050129880260098691 -0.033402401891679485 0.059000848947467231 -0.034496984873263956 -0.046420973801833597 0.059612906718194907 -0.083560312440575782 -0.013422924080236173 -0.031725355058594626 0.012806091671691147 -0.013033934294231539 0.078988025433310821 0.011217239808965768 -0.088156247796947251 -0.050332326580713939 -0.041356122723975874 -0.012101639047265649 0.055330914020484526 0.036051587241568969 -0.071682422423787223 -0.011815942437860182 -0.00043844664841774381 0.074733513629722345 0.037701497024861939 0.0035387300282861797 -0.034443829207283463 0.026908159867911612 0.032669193542904741 -0.020532848935856711 0.10011417822458511 -0.0077019667711984707 -0.0010607518400751941 0.056318892868790126 -0.049980775806728439 0.052494437840340344 -0.14071836066549989 -0.012088738704612084 0.097427556706608853 0.0069033322132699311 -0.012134342640223842 -0.051502494617473235 0.054536017286317906 0.01767134362886014 -0.019874697483989876 -0.068338466621914201 -0.057579295760119852 -0.067797864040051531 0.13041354625983126 -0.041987062665309959 -0.049264449605414852 -0.040305362340039098 -0.018427334177441992 -0.012691923867269366 0.039035205664707168 0.096146025405892621 0.016597710749667646 0.062970602846443527 -0.070230360861349109 0.0075984244562800982 -0.032392123159479203 0.0029959847488513097 0.020071967637648666 -0.028729385318420637 -0.055795504494035746 0.059322973383211339 -0.034949432742313463 -0.025145255011846151 0.040083379572463405 0.00062252034213383634 -0.059032744720032337 0.0015327093608766273 -0.032941816675501237 0.010092834839138443 0.018799283917251223 -0.042270353720159859 0.0063639417110820298 -0.027343525082470087 -0.035507451675751249 -0.041370232841301459 0.10341020004492626 0.023585784431080396 0.0067585143817940844 0.033753169775763203 0.041908375506305023 -0.024751685799799774 -0.020430107127734409 0.031208863880304125 0.053662254741373136 -0.044927277991877339 0.0037876443986905881 -0.012499497663817275 -0.042843752002838624 0.0099310961635159928 -0.041642147764906809 0.12505494959297814 0.011418540767218002 0.0064184954687775166 0.14571358214428762 0.044139455118344828 0.11272300129175387 0.067892677500164741 -0.03245505089851651 0.04724571599999039 -0.037783716268334565 0.06394528676315317 -0.053622396509911956 -0.039030195369726246 -0.061834908076654489 -0.06595486898215884 0.13321722520856358 -0.0097234259071241856 -0.011920258529659691 -0.047001095236807136 -0.0875619505180531 0.10011417822029108 -0.0077019667655260395 -0.0010607518556045696 0.056318892880298031;0.088215570947968266 0.0045597901260596109 0.11558021496118351 0.097037126209707031 -0.010313763527763638 0.0061338515168587043 -0.12886665114571366 0.039563215882978911 -0.092596748560174247 -0.03849855131601599 0.10784493964715189 -0.056386129850409979 -0.053806379409428562 0.037791335840485496 -0.06075146748495544 0.06608335286217748 -0.064560134175284209 -0.048060857685077923 0.020969439497110252 -0.035155746075981542 0.055004843761969076 0.026716518701088356 0.023576020052796555 -0.0017001991963035185 -0.030574349924420482 0.039093815498315761 -0.051259232046559265 0.001255872239103086 0.069774725631973886 -0.060952871829283495 -0.04295315678947758 0.046618851203102746 -0.11901019068851693 0.088823617659121404 0.061888815988868771 -0.06119691459060466 0.01025146847225966 -0.054676582824982972 0.086111024845136663 0.033844797857756244 -0.073413596335857881 0.10480642139112126 -0.082402214561780582 -0.0088999112694551682 -0.20455572062468153 -0.017815376962710378 -0.015614122096196085 0.089312171875180354 -0.11751240705323079 -0.079795012106593691 0.023863292616212926 0.048925383256411346 0.022350122819055782 -0.059811901514605324 0.050770362527080802 -0.024715594520798786 0.030549509173476205 0.060638328855236442 0.13710517790258381 0.011406624639260891 -0.11717134036346588 0.025967367375723954 -0.096083498579972712 0.01372527365881686 0.11694306207916251 0.012264251810697549 0.01675295310310853 -0.042791646153327402 -0.013203160357236055 -0.002848351114426008 0.036574728518086776 -0.0020874149979554168 -0.011208088391363918 0.022405617780568467 -0.015958712360636378 -0.042284387559866757 -0.069018656411023685 -0.018741071931324908 0.025228284151474618 -0.12087310453471421 -0.01598941937179622 0.036045364249436024 -0.013586846998044716 0.02374179703136357 -0.093125573905637637 -0.018763535811970277 -0.020332570107589799 -0.022033467290887135 0.032603936941025854 0.045799804044648999 -0.042960113331228802 0.013353333080885417 -0.028227266268783465 -0.022575184637072272 -0.029015540828217896 -0.058685820153907067 -0.02331982233772752 -0.01001093390348539 0.0087464677511730812 0.069919032265295278 -0.13540135324240107 -0.061066781236974878 -0.055833731679496762 -0.06955401291197591 0.0095808105622202048 0.12285807809357832 0.010918543822094307 -0.036411614391565469 0.01913068081999925 0.0014054693981005355 0.0070706805191805026 -0.095795981285582643 0.058847290262282588 0.023420701680782013 0.096390413386748974 0.064029781126409294 0.078584437692910347 0.050231868419078639 -0.047354064561132794 -0.040450891361272966 -0.054353453745053779 -0.032619524602526255 -0.078302683047165339 -0.025672976067794319 -0.1061684958081857 0.0078934783809136832 -0.040358224603143603 0.077268042880876284 -0.02429277362202371 -0.092948557430877266 -0.013446456540541362 -0.040025232983884995 0.081397896554311538 0.04837985855815654 0.059161717623329495 -0.10705635791741558 -0.00065523808034847152 0.090135749271302995 0.034805448200463551 0.050770362534744741 -0.024715594511124386 0.030549509192360987 0.060638328845176795;-0.071721888377346471 -0.022249054244232711 0.045829404847250732 0.053322876238463351 -0.063134914735952022 -0.039232328629515451 0.0024114331535420794 -0.10091848788869062 0.0024091467688269175 -0.050431285683503989 -0.016198934227612656 0.010345785839968214 -0.12542444303314484 -0.002645609778401965 -0.082014847070131014 -0.063562529125050504 -0.028163068034616084 -0.036697627305411623 -0.0091809280968021163 -0.075683272532087231 -0.015301139679271838 0.010300666897958314 -0.042845549742905178 0.016350931993663782 -0.05463890519125579 -0.047211651703202823 0.053795456691509307 0.062481403245206471 0.028705578599041499 0.0055150311024933325 0.05013150332357505 -0.026165568394450368 0.077076112881375336 0.017186776241447332 0.031007457574051253 0.084701701561913298 -0.021935888185436767 0.036800500053968059 -0.0061507479946096835 -0.099102900760523499 0.018673404323389899 -0.09505695307819001 0.052376328969169821 -0.016894146219814204 0.028826545843463162 0.041683589544808441 0.0096634652856848885 -0.037076458853750598 -0.025206940819663334 -0.042611760711199591 -0.023147667119533314 -0.038199878722312432 -0.014879074712567383 0.029106591006614359 0.025925187372705282 0.06065070252966339 0.027627351825383367 0.072877343603343761 -0.0070670487019663759 0.0024778317785667031 -0.11080745470706216 -0.0081851261962744299 0.048997843318906727 -0.12579495868369078 -0.088392197484047572 -0.046603827320972124 0.06332935541149956 -0.0044555890790814075 -0.062276859105761473 -0.032847744035860001 0.011502337847150684 0.086220417744300643 -0.023838017673820329 0.0054456156004508895 -0.0020390534512380464 0.023903614255799063 -0.11509706656143109 0.068408357431660488 0.047002174513963518 -0.076077131018184044 -0.016057234990154382 -0.019658057274696668 -0.12345934669583804 -0.0030006857817725646 0.035718570091911386 -0.020714172651863351 0.0080986427462693376 0.01682190439227723 0.03677201943794265 0.048487223269736118 -0.07131547262185052 0.059894981989842541 -0.095284258387591775 0.026933791469909762 -0.062472176816036271 0.040491419912324605 -0.02363269201112143 -0.035642813749679279 0.010026204199474744 -0.077967156982688801 0.029053807362529448 -0.11647687471615084 -0.039589345587963828 0.039987861306692095 -0.063975207129998032 -0.073878154751036568 0.047240178191063339 -0.020588159069243699 -0.10047662483401963 0.063559196291148465 -0.095800225409283804 -0.017593904924612245 0.094587961453223748 0.091935602367366809 0.066945806238535854 0.027030809759657867 0.06546836144409364 -0.030268937001440076 -0.022744998470352523 -0.15677218358614758 -0.07689490903377566 -0.050779358275743466 -0.18340552999751331 0.0073968447380811791 -0.065606736579302674 -0.088721394508112131 -0.11491558686130759 -0.087977052389623417 0.078125002167365551 -0.084991791630537494 0.054960514931780113 -0.062465662341079448 0.085145847265838695 -0.02008030063937586 -0.063215860484019754 -0.0048605020714909911 0.0016542392332167363 -0.077079406816888699 0.14507274660145164 0.025925187381577043 0.06065070253951263 0.02762735180957971 0.072877343671367098];

% Layer 2
b2 = [-0.2605134517202139;-0.19254843944417277;-0.21051311607534762;-0.28330736322125755;-0.10749339064369411;-0.082395412679185584;-0.32388315033257237;-0.13549099428493941;-0.088610908441584382;-0.20353381753355265];
